<?xml version="1.0"?>
<opencv_storage>
<opencv_ml_svm>
  <format>3</format>
  <svmType>C_SVC</svmType>
  <kernel>
    <type>RBF</type>
    <gamma>5.0624999999999998e-01</gamma></kernel>
  <C>1.2500000000000000e+01</C>
  <term_criteria><epsilon>1.1920928955078125e-07</epsilon>
    <iterations>1000</iterations></term_criteria>
  <var_count>144</var_count>
  <class_count>2</class_count>
  <class_labels type_id="opencv-matrix">
    <rows>2</rows>
    <cols>1</cols>
    <dt>i</dt>
    <data>
      0 1</data></class_labels>
  <sv_total>40</sv_total>
  <support_vectors>
    <_>
      7.57198129e-03 2.62200856e-03 1.39267871e-03 9.88150481e-04
      7.77537329e-03 1.05404360e-02 1.45693813e-02 1.24788526e-02
      1.43968388e-02 8.23071413e-03 3.89273860e-03 2.14619935e-03
      3.80655541e-03 4.41154130e-02 4.34968136e-02 1.43517122e-01
      1.55920357e-01 5.07661402e-02 2.87055802e-02 1.63493063e-02
      9.29629430e-03 9.51865781e-03 3.14871855e-02 2.29404401e-02
      1.74465746e-01 2.25220993e-01 7.25371763e-02 5.85947223e-02
      1.23875402e-02 3.74440104e-03 2.27189972e-03 4.40913578e-03
      2.88669881e-03 3.44767272e-02 3.71899456e-02 3.75774205e-02
      1.96809229e-02 2.85847299e-02 3.04068495e-02 5.00033423e-02
      4.56803292e-02 2.39237454e-02 1.51435062e-02 1.60152949e-02
      1.49780661e-02 4.46339250e-02 5.30934408e-02 3.84997427e-02
      5.73898330e-02 1.02906793e-01 2.00279400e-01 1.98467731e-01
      1.14466794e-01 8.52221921e-02 1.00119285e-01 1.93730086e-01
      5.68499118e-02 4.79070432e-02 9.70757380e-02 2.18403786e-01
      2.37744853e-01 2.20596910e-01 2.07252011e-01 9.81113911e-02
      6.66244105e-02 7.59625658e-02 5.15283979e-02 3.26839983e-02
      2.81816646e-02 4.92771342e-02 2.67633982e-02 4.94861417e-02
      4.06062342e-02 5.30035608e-02 6.34850785e-02 5.07804900e-02
      4.21011932e-02 4.46877778e-02 3.99425291e-02 3.93903255e-02
      5.14588468e-02 1.59441695e-01 1.87886566e-01 2.15642557e-01
      9.36276913e-02 5.85758947e-02 1.05091274e-01 1.09968662e-01
      8.47752094e-02 2.00253516e-01 1.83556795e-01 2.37744853e-01
      1.07895575e-01 6.06455542e-02 5.49841002e-02 9.06970501e-02
      8.00532922e-02 4.20208611e-02 1.58391595e-01 4.07831781e-02
      7.34762177e-02 4.05383669e-02 2.05099024e-02 1.75914951e-02
      1.20865665e-02 1.20696481e-02 1.46923419e-02 3.06334291e-02
      3.22048143e-02 1.66789927e-02 1.03428792e-02 6.27427455e-03
      7.03514414e-03 1.42984483e-02 1.32443970e-02 1.49063775e-02
      2.92818099e-02 7.22523108e-02 4.09506448e-02 1.96219739e-02
      1.75194778e-02 1.50765842e-02 3.33923586e-02 5.67356460e-02
      1.06505834e-01 6.12519830e-02 8.58939514e-02 6.76802620e-02
      2.66993791e-02 1.78289562e-02 2.22021155e-02 2.50753835e-02
      2.89892778e-02 7.75303245e-02 8.02326724e-02 3.74879390e-02
      3.05492394e-02 8.98901001e-03 7.66146369e-03 1.00768218e-02
      9.14478395e-03 4.47221566e-03 8.09890125e-03 2.12347507e-02</_>
    <_>
      2.91020516e-03 4.44869418e-03 5.40499017e-03 9.18811467e-03
      8.18577409e-03 1.43980449e-02 1.25330752e-02 4.59712185e-03
      2.66264589e-03 1.38239916e-02 1.72611680e-02 1.72501169e-02
      2.00812221e-02 3.04434970e-02 4.35543433e-02 4.99905013e-02
      6.10419251e-02 1.30858254e-02 2.22753026e-02 1.25969462e-02
      4.88222810e-03 3.15453578e-03 2.05156859e-02 9.28143710e-02
      1.79829538e-01 1.57228500e-01 6.36740103e-02 2.64651366e-02
      1.27499383e-02 1.54534378e-03 1.87920337e-03 9.29986406e-03
      1.66254286e-02 5.66872731e-02 5.98763451e-02 3.89885381e-02
      3.34255099e-02 3.75729874e-02 6.20123744e-02 9.45425853e-02
      6.21210448e-02 3.42270173e-02 2.03852262e-02 3.80671471e-02
      2.18014084e-02 1.05651379e-01 1.14661507e-01 1.18735634e-01
      1.76260710e-01 1.75939053e-01 1.19796030e-01 5.19130379e-02
      3.56081799e-02 2.77505741e-02 1.64606884e-01 1.45779580e-01
      8.31450671e-02 5.03031984e-02 1.64447501e-01 2.43594885e-01
      2.43594885e-01 1.27942026e-01 1.18282929e-01 9.02292579e-02
      9.28879008e-02 4.73044626e-02 2.61969715e-02 5.79373203e-02
      7.83858150e-02 1.00050189e-01 4.41083349e-02 5.03304601e-02
      8.32918137e-02 3.23606394e-02 6.05023988e-02 6.47229776e-02
      4.85145934e-02 7.13939443e-02 4.42443155e-02 4.89616953e-02
      4.65318933e-02 2.43594885e-01 2.17954993e-01 1.65377721e-01
      1.09817393e-01 9.06110331e-02 9.61813703e-02 7.95520097e-02
      9.54783410e-02 7.45225400e-02 2.32174411e-01 2.32719734e-01
      1.60742670e-01 7.64895231e-02 6.05046377e-02 6.22704066e-02
      5.46639338e-02 1.18219078e-01 9.63187367e-02 9.71364453e-02
      1.22168578e-01 4.70107831e-02 2.13314183e-02 1.22787040e-02
      9.75767802e-03 6.77904952e-03 1.98555849e-02 2.57211477e-02
      4.11874428e-02 1.31299496e-02 1.04266759e-02 1.67194102e-02
      4.06856136e-03 7.06099533e-03 1.11724203e-02 1.65135898e-02
      2.07073875e-02 7.16932565e-02 5.46671413e-02 3.32116671e-02
      2.04425752e-02 3.42690162e-02 3.22143137e-02 3.11318543e-02
      8.29108506e-02 3.97923887e-02 4.39154245e-02 2.73816418e-02
      2.18055937e-02 1.53994933e-02 3.94020118e-02 5.62801659e-02
      6.79762363e-02 1.48434997e-01 8.77642781e-02 2.23963130e-02
      2.22601555e-02 1.36040607e-02 1.66095626e-02 2.13411842e-02
      1.25744976e-02 1.51722236e-02 2.06331462e-02 1.89534482e-02</_>
    <_>
      1.41198402e-02 4.14536707e-03 9.35979746e-03 7.45798554e-03
      1.30105717e-02 1.40697341e-02 2.13669706e-02 1.86469052e-02
      2.27869749e-02 2.87002213e-02 3.85889746e-02 6.31953701e-02
      5.80273792e-02 7.52116367e-02 3.34625542e-02 4.60080616e-02
      4.84440885e-02 2.83881836e-02 6.37979582e-02 9.07585174e-02
      9.59313959e-02 5.49574047e-02 6.58035055e-02 2.57061757e-02
      2.25643218e-02 2.16234066e-02 2.82204784e-02 4.45747301e-02
      4.10721190e-02 3.75237949e-02 8.47307593e-03 6.00345014e-03
      5.09496778e-03 5.32008940e-03 6.89954264e-03 1.83784179e-02
      4.11457494e-02 3.83341163e-02 6.33296892e-02 4.08737324e-02
      3.77730243e-02 3.16727161e-02 1.90983582e-02 1.87073592e-02
      3.14522982e-02 1.36347651e-01 1.75494894e-01 1.72420800e-01
      8.18010345e-02 1.02338001e-01 1.44692257e-01 1.76363021e-01
      1.00886680e-01 1.20180562e-01 2.57340312e-01 2.57340312e-01
      2.57340312e-01 5.66263311e-02 7.49076307e-02 6.28519803e-02
      6.32526353e-02 6.03485629e-02 1.51922733e-01 1.67426631e-01
      1.50684014e-01 1.43906459e-01 2.79834885e-02 1.85039155e-02
      3.38194706e-02 2.18351074e-02 2.41371691e-02 9.77402329e-02
      3.14201415e-02 4.01259437e-02 1.94844510e-02 2.55996399e-02
      5.54957055e-02 3.65869179e-02 4.01574336e-02 3.07972971e-02
      2.22378001e-02 9.09745395e-02 1.16008461e-01 9.22356397e-02
      5.96168041e-02 1.02434270e-01 1.01579867e-01 1.08674541e-01
      1.00728720e-01 8.90467390e-02 1.51961282e-01 2.09366977e-01
      2.50959009e-01 9.61341262e-02 1.32744730e-01 1.47837684e-01
      6.68824390e-02 7.60286525e-02 6.08754084e-02 5.22676371e-02
      4.16668318e-02 1.16438955e-01 5.24753109e-02 7.97745138e-02
      1.17343217e-01 8.44872817e-02 4.01347391e-02 5.13747334e-02
      4.71778773e-03 3.79376812e-03 4.25030291e-03 5.90092363e-03
      1.14401057e-02 9.26588103e-03 4.08447860e-03 4.75890376e-03
      4.91211470e-03 5.38383145e-03 1.18957339e-02 2.97936108e-02
      2.64538229e-02 3.95931751e-02 2.92880647e-02 1.52819371e-02
      3.01273353e-02 1.81645192e-02 1.50644174e-02 7.78133348e-02
      2.17643723e-01 9.65553075e-02 4.09342423e-02 1.31243216e-02
      4.50505689e-03 4.85801417e-03 5.52889332e-03 1.07751796e-02
      2.91154925e-02 8.38960484e-02 2.16118321e-02 2.25572530e-02
      1.66419316e-02 5.72053082e-02 1.81611199e-02 7.58275250e-03</_>
    <_>
      2.57094065e-03 3.64508200e-03 2.68525770e-03 1.85884200e-02
      3.16720307e-02 8.85001384e-03 6.72889827e-03 8.26168247e-03
      4.63062664e-03 1.32247424e-02 1.05673382e-02 1.51715083e-02
      3.32799442e-02 6.42981827e-02 3.19661684e-02 4.68990915e-02
      6.45421818e-02 4.24737893e-02 1.89698655e-02 5.19885682e-02
      7.07290471e-02 3.34298722e-02 4.00965996e-02 3.06062475e-02
      5.08403741e-02 7.09237754e-02 5.08937426e-02 1.42482612e-02
      2.90417206e-02 2.23823003e-02 5.34830242e-03 5.32150595e-03
      9.52893961e-03 1.56406537e-02 8.70822836e-03 1.11321704e-02
      1.97280347e-02 1.86455697e-02 3.58241796e-02 3.84071134e-02
      3.79722752e-02 3.74006853e-02 4.91188727e-02 4.22290005e-02
      3.48367579e-02 5.51315360e-02 3.77100334e-02 5.80982827e-02
      4.26927991e-02 6.86243251e-02 2.01824158e-01 2.51261622e-01
      1.90061867e-01 6.01677001e-02 1.91839457e-01 1.11983225e-01
      1.47421643e-01 4.35331501e-02 3.95928696e-02 4.08986434e-02
      9.68037248e-02 1.26672328e-01 2.12174430e-01 1.42182827e-01
      1.13547310e-01 8.62175897e-02 1.33343618e-02 1.24419853e-02
      1.10552795e-02 3.19622867e-02 4.32786457e-02 1.38634577e-01
      2.10057534e-02 2.41593383e-02 2.11225059e-02 1.82122756e-02
      2.36165468e-02 3.44286971e-02 6.80801868e-02 6.13681972e-02
      3.77805457e-02 1.95586935e-01 2.32173428e-01 9.72978771e-02
      4.95275594e-02 3.18441093e-02 1.04822449e-01 1.60261437e-01
      1.21966489e-01 1.32373065e-01 2.51261622e-01 2.51261622e-01
      6.14414588e-02 3.15177292e-02 2.55797431e-02 1.95151456e-02
      6.44661114e-02 8.76140445e-02 2.51261622e-01 2.51261622e-01
      4.65659350e-02 2.25116350e-02 2.36136112e-02 1.74448751e-02
      3.34514007e-02 2.67770328e-02 4.28330377e-02 2.24562198e-01
      1.74856465e-02 1.83941126e-02 6.05255179e-03 4.56864340e-03
      5.12070628e-03 4.61647147e-03 1.88500937e-02 7.09840842e-03
      1.52090974e-02 6.83444291e-02 4.96769659e-02 1.89601276e-02
      2.23326888e-02 3.17138322e-02 5.03045507e-02 1.35721400e-01
      5.58889471e-02 6.62166476e-02 1.00989483e-01 7.57632330e-02
      1.61859300e-02 9.06946044e-03 1.81674585e-02 1.78177729e-02
      3.43368985e-02 3.01134400e-02 5.16055115e-02 3.04776393e-02
      9.45340749e-03 4.46807733e-03 3.58654372e-03 7.45892851e-03
      7.54633313e-03 8.74393433e-03 7.59019097e-03 1.53025622e-02</_>
    <_>
      6.64991839e-03 5.13638370e-03 2.45726085e-03 1.30578037e-02
      2.02497393e-02 1.14514474e-02 1.59609709e-02 1.73392799e-02
      6.19101059e-03 2.72368994e-02 1.04205040e-02 5.56567125e-03
      1.40351970e-02 2.99935620e-02 3.95365581e-02 1.10861070e-01
      9.45209712e-02 3.72258015e-02 4.82535772e-02 2.47314759e-02
      1.07338065e-02 1.05410703e-02 9.41333547e-03 3.52704339e-02
      7.24804401e-02 8.08565170e-02 5.42329028e-02 1.44650266e-02
      1.21361613e-02 3.62596009e-03 3.49689811e-03 4.43539303e-03
      4.79848450e-03 4.72166063e-03 1.29653057e-02 1.06880087e-02
      1.24365669e-02 2.30197124e-02 3.98650542e-02 4.11773436e-02
      3.69753726e-02 3.98303270e-02 4.57171425e-02 2.35315934e-02
      1.97988842e-02 2.08286673e-01 1.44072443e-01 6.55708089e-02
      5.72352521e-02 6.74514323e-02 1.01714820e-01 1.29078671e-01
      9.09536704e-02 1.21450581e-01 2.56658047e-01 1.88883677e-01
      5.17807491e-02 2.25695465e-02 3.03340908e-02 4.78718653e-02
      4.96875085e-02 9.10744220e-02 1.44667685e-01 2.56658047e-01
      1.22336969e-01 2.64220387e-02 2.59469133e-02 3.53703052e-02
      3.95411775e-02 3.20849121e-02 2.48419624e-02 5.55267148e-02
      2.10401546e-02 1.47457942e-02 1.60613656e-02 1.50105255e-02
      2.48334203e-02 3.40420976e-02 5.30638844e-02 4.02179919e-02
      2.38492265e-02 2.18369678e-01 1.84090033e-01 9.28109810e-02
      4.58649471e-02 6.16352372e-02 4.88553122e-02 5.12647815e-02
      4.64910865e-02 1.33573011e-01 2.56658047e-01 2.56658047e-01
      2.27791891e-01 5.13826348e-02 9.28142145e-02 9.93272141e-02
      1.12190321e-01 6.69219121e-02 9.76784304e-02 1.39954016e-01
      1.15200266e-01 6.97228238e-02 1.43862050e-02 2.70269308e-02
      3.85914296e-02 1.61861882e-01 6.77333251e-02 3.86791304e-02
      2.35593449e-02 1.64220873e-02 4.84153815e-03 4.53988649e-03
      7.03392085e-03 6.04541460e-03 8.45322013e-03 1.08798761e-02
      1.74157862e-02 1.61214933e-01 1.33093417e-01 5.90244867e-02
      1.21078659e-02 2.49572005e-02 7.25319004e-03 1.22554172e-02
      1.48301208e-02 6.86089993e-02 2.07669437e-01 1.85820162e-01
      6.61983490e-02 3.34565830e-03 5.12510212e-03 3.44455661e-03
      1.64000522e-02 1.18704280e-02 3.76876630e-02 9.57456306e-02
      2.97455378e-02 1.19780889e-02 2.54804431e-03 2.13318667e-03
      7.70943845e-03 4.04979140e-02 2.13173851e-02 2.55178735e-02</_>
    <_>
      4.84840339e-03 3.75295151e-03 4.44968743e-03 1.53348809e-02
      2.00621616e-02 1.18383868e-02 1.55367181e-02 1.17110889e-02
      9.45149083e-03 1.71525776e-02 2.28482205e-02 1.10567128e-02
      1.25874234e-02 2.94231623e-02 2.18576062e-02 7.47451931e-02
      1.03410028e-01 5.12496345e-02 4.01333906e-02 3.40335518e-02
      3.05936951e-02 1.26996282e-02 7.55841145e-03 1.80869643e-02
      5.55719472e-02 7.34381899e-02 6.35793358e-02 1.70377102e-02
      1.16726644e-02 6.87069772e-03 2.82914867e-03 2.75976816e-03
      4.13865456e-03 6.51276717e-03 1.49118137e-02 1.58398058e-02
      1.19394232e-02 2.21656021e-02 3.67768221e-02 4.06964719e-02
      4.72991355e-02 3.70080322e-02 4.83151451e-02 2.64205933e-02
      2.23971419e-02 1.79339096e-01 1.19390450e-01 6.20962791e-02
      5.83487637e-02 8.16304162e-02 9.08255875e-02 1.37828395e-01
      9.81889367e-02 1.17162898e-01 2.63977468e-01 1.36914462e-01
      7.83642083e-02 2.89447643e-02 1.72380377e-02 3.41801122e-02
      5.63158914e-02 4.56327051e-02 1.87941849e-01 2.63977468e-01
      7.74950087e-02 4.59859781e-02 3.54718156e-02 3.52963358e-02
      2.93662380e-02 4.63640168e-02 2.44881902e-02 1.21605903e-01
      1.71137489e-02 1.97239760e-02 1.75490398e-02 1.58128180e-02
      2.18399633e-02 3.91056277e-02 5.21767773e-02 3.68636958e-02
      3.52506973e-02 2.61245787e-01 1.80411011e-01 7.76301771e-02
      4.22668867e-02 4.80993427e-02 4.66438383e-02 6.40264228e-02
      7.24427029e-02 1.35145590e-01 2.63977468e-01 2.63977468e-01
      1.97466686e-01 4.06385921e-02 6.56958297e-02 5.30270450e-02
      9.78338495e-02 5.56317568e-02 1.23899117e-01 1.97286814e-01
      9.40354168e-02 6.99680746e-02 4.29012813e-02 2.69406140e-02
      3.27596329e-02 1.56153381e-01 7.86852688e-02 8.12731609e-02
      2.24129390e-02 1.31408311e-02 8.43853783e-03 4.70836228e-03
      7.02327862e-03 8.19031801e-03 8.43727216e-03 9.86477174e-03
      2.01160908e-02 1.69614822e-01 1.18448064e-01 5.39501458e-02
      1.27847474e-02 2.39349455e-02 1.46949869e-02 3.23893093e-02
      2.69066487e-02 6.03333823e-02 2.03961790e-01 1.72493994e-01
      4.14068438e-02 1.15551613e-03 4.57125437e-03 3.33856558e-03
      1.45443901e-02 2.36660987e-02 5.56793474e-02 8.53356495e-02
      2.37271059e-02 7.11746980e-03 2.95265298e-03 8.26698169e-03
      5.22805471e-03 3.16946246e-02 2.03732215e-02 3.42375562e-02</_>
    <_>
      4.91808169e-03 5.57787204e-03 3.12133785e-03 6.42278790e-03
      8.42003524e-03 1.45413531e-02 1.34908380e-02 3.28785763e-03
      3.22803203e-03 4.61588940e-03 5.95409190e-03 6.36819657e-03
      1.05231702e-02 2.67882850e-02 4.17796373e-02 1.73457280e-01
      7.75783807e-02 1.97082609e-02 4.05464647e-03 7.31033215e-04
      2.24237842e-03 1.38739066e-03 1.86986439e-02 3.02355103e-02
      2.49398515e-01 1.75303295e-01 4.38926890e-02 1.55685665e-02
      5.82833495e-03 6.94872765e-03 2.13005673e-03 1.36648712e-03
      2.08594580e-03 5.52974790e-02 9.73062441e-02 5.61125614e-02
      2.58922204e-02 3.49384323e-02 4.70594428e-02 8.79364386e-02
      6.45426363e-02 3.32316831e-02 1.37335677e-02 2.25571357e-02
      2.30810884e-02 6.00282885e-02 7.99125507e-02 1.07359320e-01
      1.12719551e-01 1.03111930e-01 1.62342489e-01 1.65576547e-01
      8.83879140e-02 4.13898304e-02 1.87000379e-01 1.06704190e-01
      1.66074634e-01 3.12235914e-02 8.49691331e-02 2.49398515e-01
      2.49398515e-01 1.42938629e-01 1.28544003e-01 3.66197452e-02
      2.66342834e-02 4.60978225e-02 2.65487637e-02 3.33272181e-02
      1.69666745e-02 6.09051958e-02 3.80555242e-02 2.99601480e-02
      3.20990682e-02 6.81941807e-02 7.47706071e-02 5.43386117e-02
      3.91728170e-02 4.73903343e-02 4.81025651e-02 7.08656013e-02
      4.59792204e-02 1.38532087e-01 2.10491538e-01 1.83323726e-01
      1.01876594e-01 5.59106842e-02 7.33562484e-02 7.81242922e-02
      1.34155363e-01 1.13519534e-01 2.00668812e-01 1.48168057e-01
      1.55376956e-01 8.50275606e-02 4.92559224e-02 6.78344518e-02
      8.49216133e-02 6.46829978e-02 1.67104632e-01 7.56265894e-02
      3.39489430e-02 2.98686847e-02 2.33657751e-02 2.30527278e-02
      1.76096223e-02 1.46601135e-02 1.79135222e-02 5.36633879e-02
      2.61566192e-02 1.38079673e-02 9.74931754e-03 8.54117516e-03
      4.94318455e-03 7.49282818e-03 1.54594639e-02 1.42871020e-02
      1.69572905e-02 4.63207513e-02 2.92397700e-02 1.33018810e-02
      1.67130325e-02 2.30015814e-02 2.37963423e-02 7.86467195e-02
      7.98451304e-02 4.66447212e-02 6.83621988e-02 3.28902528e-02
      3.68979052e-02 1.21365320e-02 5.14867343e-02 7.26769865e-02
      2.49398515e-01 1.11470781e-01 8.88221487e-02 6.78453371e-02
      2.22039148e-02 1.27214575e-02 1.06075360e-03 1.20630907e-02
      1.26414411e-02 3.30707207e-02 3.28555927e-02 6.12782314e-02</_>
    <_>
      4.37680306e-03 6.50672056e-03 4.45959391e-03 5.78091294e-03
      1.03540812e-02 9.96698998e-03 1.24465162e-02 3.77872051e-03
      2.23323004e-03 8.54229834e-03 1.11129545e-02 9.36628599e-03
      1.40643641e-02 2.69640200e-02 4.74723466e-02 1.17352530e-01
      5.49888313e-02 8.54517706e-03 4.72649885e-03 2.50535016e-03
      4.46116988e-04 2.30384851e-03 2.15418320e-02 5.08246794e-02
      2.54248708e-01 1.28776371e-01 2.17341594e-02 1.02117471e-02
      3.33125517e-03 4.28136019e-03 6.67349144e-04 3.83111252e-03
      6.61935285e-03 8.54396597e-02 7.08687007e-02 5.30666895e-02
      2.29311883e-02 3.20919454e-02 4.75614034e-02 8.76886994e-02
      6.92707524e-02 2.99758930e-02 1.37615781e-02 3.18552330e-02
      2.91377325e-02 6.55445531e-02 8.40522051e-02 1.10130988e-01
      1.41812041e-01 1.31702527e-01 1.47108346e-01 9.56597999e-02
      5.64042144e-02 4.99601625e-02 1.04175158e-01 2.29026243e-01
      1.06783390e-01 6.56369328e-02 9.84978378e-02 2.54248708e-01
      2.54248708e-01 1.08373836e-01 9.57247168e-02 3.26941796e-02
      6.65932074e-02 4.57790494e-02 3.30051742e-02 3.31835747e-02
      2.58124750e-02 1.07893214e-01 3.26500237e-02 2.78488770e-02
      2.86948979e-02 6.44816458e-02 6.74145296e-02 5.08151390e-02
      5.10489494e-02 5.41270040e-02 4.29533720e-02 7.49872476e-02
      5.90756387e-02 1.44362375e-01 2.24846065e-01 2.13840812e-01
      1.12345487e-01 6.94872811e-02 1.20040104e-01 6.03088066e-02
      9.61619094e-02 1.49209574e-01 1.94831863e-01 1.90703154e-01
      1.50290892e-01 9.08510908e-02 4.71292250e-02 7.41577670e-02
      8.62926915e-02 5.48614115e-02 1.46702334e-01 9.18789580e-02
      5.97457290e-02 4.27083410e-02 3.24824601e-02 2.48894319e-02
      1.63060650e-02 1.49207348e-02 9.66574624e-03 5.71264066e-02
      2.53907349e-02 1.42424488e-02 1.05785094e-02 6.60656439e-03
      3.44874943e-03 1.21166054e-02 1.18665481e-02 1.15586678e-02
      2.62478087e-02 5.76610602e-02 3.03453468e-02 2.56908443e-02
      1.59935188e-02 1.33203920e-02 3.06756534e-02 4.97842841e-02
      6.21421412e-02 5.23445569e-02 7.84706622e-02 4.35848162e-02
      3.28437053e-02 1.09103415e-02 4.21324186e-02 9.88366529e-02
      2.38953888e-01 7.40034282e-02 7.18702897e-02 6.87206835e-02
      3.63950394e-02 1.77808180e-02 3.66159971e-03 1.52023351e-02
      1.50678465e-02 5.33100218e-02 2.81032398e-02 5.96097298e-02</_>
    <_>
      2.86323912e-02 1.89160202e-02 1.18111921e-02 7.02214334e-03
      5.36383130e-03 2.71971105e-03 5.99716650e-03 8.30525812e-03
      1.43063879e-02 4.84347753e-02 8.69005919e-02 8.13068151e-02
      6.36211261e-02 1.78694949e-02 4.22665663e-03 1.20566087e-02
      2.17434298e-02 1.49630951e-02 2.52006706e-02 5.89771494e-02
      5.55488691e-02 9.04843286e-02 7.90825263e-02 3.18742394e-02
      1.71261895e-02 1.63968354e-02 1.50312651e-02 1.34919947e-02
      2.63052993e-02 3.38252187e-02 5.89606352e-02 3.44056413e-02
      1.95853673e-02 1.53676188e-02 4.99780988e-03 1.32576432e-02
      5.58268763e-02 5.87836690e-02 5.94451800e-02 4.57493216e-02
      4.37830798e-02 4.21439856e-02 2.77780648e-02 4.87134717e-02
      4.84876633e-02 8.16421807e-02 1.59185335e-01 1.45934999e-01
      1.39258668e-01 1.56452835e-01 1.63825363e-01 1.40817150e-01
      1.25999764e-01 9.55535248e-02 1.02998957e-01 1.41457707e-01
      9.06825587e-02 1.85803398e-01 2.42856175e-01 2.42856175e-01
      2.39567697e-01 1.41940430e-01 7.96498656e-02 6.94105849e-02
      9.41146985e-02 5.24490401e-02 5.26210405e-02 7.04936460e-02
      5.57875670e-02 1.02057040e-01 8.50750729e-02 8.33857358e-02
      3.30316760e-02 5.17234467e-02 2.78865192e-02 2.70383265e-02
      5.69591187e-02 8.47766921e-02 3.30238827e-02 2.67015416e-02
      3.64300907e-02 3.80595997e-02 4.68327366e-02 6.62818328e-02
      1.10977903e-01 2.00419933e-01 1.84903532e-01 1.08834408e-01
      7.09015653e-02 7.08428770e-02 5.50310016e-02 6.52382150e-02
      1.42285064e-01 2.42856175e-01 2.42856175e-01 1.61991939e-01
      1.22060671e-01 5.63559085e-02 4.50181887e-02 3.10639422e-02
      2.83747315e-02 4.25888076e-02 7.82638863e-02 6.73184171e-02
      5.74317500e-02 8.61153752e-02 1.28018156e-01 6.60885796e-02
      4.38577496e-03 6.36108313e-03 8.86699464e-03 9.85224638e-03
      1.00943297e-02 1.56235835e-02 6.54760050e-03 3.71474773e-03
      3.26145370e-03 7.21418159e-03 9.42548271e-03 1.92290060e-02
      3.00763417e-02 4.20562513e-02 3.29231545e-02 2.80500781e-02
      2.48224363e-02 2.41533183e-02 1.15667740e-02 3.01929116e-02
      9.96415019e-02 1.63509443e-01 2.87280399e-02 5.83279924e-03
      1.04648955e-02 4.31251107e-03 6.86705485e-03 1.08384388e-02
      2.95115449e-02 7.00052828e-02 3.54188010e-02 7.67845055e-03
      5.43215137e-04 1.59701251e-03 1.14654808e-03 4.89784917e-03</_>
    <_>
      8.26063566e-03 1.40519300e-02 2.57727467e-02 1.54798459e-02
      8.79903883e-03 4.36301949e-03 1.42937237e-02 1.33983456e-02
      8.56467709e-03 1.75260417e-02 3.96963470e-02 8.87039751e-02
      4.77577932e-02 3.43981944e-02 1.97836161e-02 4.59431894e-02
      2.80458909e-02 3.80974896e-02 2.04228871e-02 2.43037958e-02
      2.72453744e-02 1.90529712e-02 1.68164484e-02 6.58614747e-03
      7.98063353e-03 4.55761841e-03 1.73202660e-02 1.29887387e-02
      6.62313076e-03 4.29271394e-03 3.38848704e-03 3.17069143e-03
      1.55536167e-03 9.74937575e-04 5.10763470e-03 1.00687630e-02
      3.04283965e-02 4.15248238e-02 7.51138702e-02 4.85213697e-02
      7.90336505e-02 1.82657205e-02 2.61047501e-02 1.23610003e-02
      1.79771036e-02 3.02893985e-02 2.88747828e-02 9.02723297e-02
      1.11125611e-01 9.76484865e-02 5.84128052e-02 6.14763461e-02
      3.94193940e-02 1.67189073e-02 1.44165263e-01 1.13983855e-01
      7.26873055e-02 9.62982774e-02 5.65992743e-02 4.13279347e-02
      4.18999940e-02 4.66837734e-02 1.25353724e-01 9.30006877e-02
      6.39575645e-02 2.17912234e-02 1.13761974e-02 1.14961434e-02
      1.39012374e-02 1.44650051e-02 2.47985814e-02 1.00107506e-01
      1.94494184e-02 1.68440770e-02 3.95107605e-02 7.59336501e-02
      1.28440976e-01 5.20280860e-02 6.63227066e-02 4.40989137e-02
      2.10077818e-02 4.69576493e-02 2.62373704e-02 4.75224704e-02
      1.00856379e-01 1.99313521e-01 1.40016571e-01 2.36774072e-01
      2.36774072e-01 1.28234431e-01 2.29543373e-01 2.12650001e-01
      8.62120762e-02 7.13249147e-02 6.84019327e-02 6.82618245e-02
      1.74657166e-01 2.36774072e-01 2.36774072e-01 1.82753161e-01
      1.29450589e-01 6.24043979e-02 2.86836550e-02 1.29817249e-02
      2.25805305e-02 4.52443436e-02 7.86420852e-02 1.55593678e-01
      9.77826770e-03 1.26647335e-02 3.22812907e-02 8.48679468e-02
      3.53812873e-02 7.61713739e-03 7.46833626e-03 8.10701586e-03
      8.10543355e-03 6.16651140e-02 8.81211236e-02 3.18300389e-02
      6.64591640e-02 4.61622104e-02 4.85268384e-02 1.83611110e-01
      1.19079970e-01 6.84308633e-02 1.40864447e-01 2.16865897e-01
      9.28008333e-02 1.46454088e-02 4.15788218e-02 3.80345248e-02
      1.01253174e-01 1.35780692e-01 1.12141453e-01 1.29019812e-01
      5.57283722e-02 3.27702798e-02 6.24567689e-03 6.62561925e-03
      1.31307298e-03 1.34655293e-02 3.09910569e-02 6.56302050e-02</_>
    <_>
      7.05932593e-03 1.68328583e-02 2.80371066e-02 1.53652988e-02
      9.68019851e-03 6.93719136e-03 1.21714491e-02 1.83390118e-02
      7.79395876e-03 2.21165158e-02 4.52596731e-02 9.67910737e-02
      6.06657974e-02 4.80138659e-02 3.61508280e-02 3.70627865e-02
      3.44298370e-02 2.23346315e-02 2.70088650e-02 3.22126336e-02
      3.09644192e-02 1.81844346e-02 2.55002622e-02 1.32849924e-02
      6.76575629e-03 7.13205570e-03 9.83603112e-03 1.36154499e-02
      5.19183744e-03 4.50965017e-03 3.63349891e-03 3.90168442e-03
      8.24041956e-04 2.67353747e-03 4.85408027e-03 9.22990683e-03
      3.11400108e-02 5.57769984e-02 6.35228902e-02 5.39636761e-02
      9.70637202e-02 3.65227498e-02 2.09442563e-02 2.07636673e-02
      2.02471092e-02 3.36620808e-02 6.12909235e-02 8.48568976e-02
      1.19136877e-01 1.06551126e-01 5.99714629e-02 5.60201295e-02
      2.51172408e-02 2.11425833e-02 2.12229803e-01 1.59612983e-01
      6.93724826e-02 9.40971449e-02 9.47071165e-02 3.91063318e-02
      5.03315292e-02 7.24962801e-02 1.04204163e-01 1.30167425e-01
      4.58848178e-02 1.97623428e-02 1.50550194e-02 1.99124888e-02
      9.68177337e-03 2.47554649e-02 3.70743051e-02 8.59283730e-02
      2.17562951e-02 3.04561891e-02 2.54678875e-02 4.53345664e-02
      1.23038828e-01 1.03981271e-01 8.91952291e-02 4.77703027e-02
      3.39474455e-02 2.94211954e-02 4.85382006e-02 4.33550924e-02
      7.30926469e-02 1.59748688e-01 1.95418388e-01 1.93463296e-01
      1.55253038e-01 4.28194925e-02 2.35955462e-01 2.16657802e-01
      7.15628788e-02 7.48635158e-02 8.78191590e-02 8.21299180e-02
      2.35955462e-01 2.35955462e-01 1.90568641e-01 2.35955462e-01
      1.18513703e-01 6.10459261e-02 5.57642616e-02 2.83533502e-02
      2.50052065e-02 5.72560877e-02 7.80296102e-02 1.82494238e-01
      7.84120802e-03 8.05119518e-03 1.14807226e-02 2.24991255e-02
      4.63893525e-02 3.61069441e-02 2.40713228e-02 1.39996549e-02
      9.76113137e-03 4.49325778e-02 3.85236815e-02 2.82912385e-02
      2.80568544e-02 1.69724211e-01 1.64476350e-01 6.35168925e-02
      5.19869477e-02 3.48189957e-02 1.32357433e-01 1.34927735e-01
      6.06069639e-02 8.30108579e-03 4.39369120e-02 5.74253686e-02
      5.97297102e-02 9.02632102e-02 1.33755028e-01 1.42952651e-01
      4.55913618e-02 2.44598277e-02 8.64599645e-03 2.22241338e-02
      3.04573160e-02 1.69289857e-02 4.18968908e-02 8.65623057e-02</_>
    <_>
      2.02372372e-02 1.80474594e-02 1.85393337e-02 1.32426023e-02
      4.82681952e-03 6.25037309e-03 5.38429152e-03 9.11785476e-03
      2.30374727e-02 3.20000611e-02 5.36254123e-02 1.14187062e-01
      7.99985453e-02 2.09678728e-02 1.30623383e-02 1.47325145e-02
      1.18584186e-02 2.87317187e-02 2.08226722e-02 2.85973679e-02
      6.15192018e-02 1.03084251e-01 7.37122372e-02 1.96510013e-02
      1.36134280e-02 9.52444319e-03 1.41227935e-02 1.06382454e-02
      1.28292302e-02 1.53152561e-02 5.69131002e-02 2.86170673e-02
      3.78491133e-02 1.74902398e-02 8.65178276e-03 9.96631570e-03
      4.55110632e-02 6.08602390e-02 6.83962703e-02 7.20643550e-02
      4.49327603e-02 4.47721109e-02 4.75429110e-02 3.38244960e-02
      2.78505255e-02 6.32561073e-02 1.33354321e-01 1.83688834e-01
      1.66274965e-01 1.84488297e-01 2.14093059e-01 1.51323438e-01
      6.32942915e-02 8.50057900e-02 5.33241630e-02 7.05964491e-02
      1.90511256e-01 2.45126992e-01 2.45126992e-01 2.25966111e-01
      1.50683776e-01 8.88150632e-02 1.05473623e-01 4.44373563e-02
      3.87682430e-02 4.85197194e-02 8.62523094e-02 4.83485460e-02
      5.70151545e-02 7.99168721e-02 1.47735149e-01 7.60686845e-02
      4.74737585e-02 3.23480070e-02 2.31592748e-02 3.83713096e-02
      6.07247278e-02 7.88485557e-02 3.87046523e-02 2.90579386e-02
      2.57055275e-02 3.15739661e-02 5.14945015e-02 7.51591846e-02
      1.25367954e-01 1.89337999e-01 1.70832172e-01 7.43318051e-02
      5.34772426e-02 6.35036230e-02 3.11538279e-02 9.28239971e-02
      2.45126992e-01 2.45126992e-01 2.45126992e-01 8.60375240e-02
      3.27098668e-02 3.32318209e-02 3.44357826e-02 2.69972123e-02
      5.91255762e-02 1.03863120e-01 6.17810823e-02 6.13626949e-02
      4.18871306e-02 4.40479033e-02 6.34503588e-02 2.75847241e-02
      3.59991961e-03 3.24157649e-03 4.51232959e-03 7.63199944e-03
      9.57048126e-03 1.02929669e-02 7.80273601e-03 1.02203209e-02
      6.39998168e-03 1.20437872e-02 1.74415447e-02 2.02767048e-02
      3.47412042e-02 3.57015096e-02 2.67064516e-02 2.29048599e-02
      2.21477225e-02 1.75291058e-02 4.72182520e-02 1.10414736e-01
      1.33545443e-01 7.49797821e-02 1.91470459e-02 5.22469869e-03
      3.67837842e-03 5.59557788e-03 9.28239804e-03 1.03003094e-02
      7.39081800e-02 9.35961902e-02 5.86687354e-03 3.35744163e-03
      2.38377033e-04 7.88289995e-04 1.08754029e-03 5.23573020e-03</_>
    <_>
      2.25874595e-02 1.70680396e-02 2.08809823e-02 1.08184414e-02
      8.69922899e-03 4.06344328e-03 6.57659722e-03 7.78766256e-03
      2.25210972e-02 5.19839153e-02 5.76517433e-02 3.65971960e-02
      6.28078729e-02 2.90182903e-02 1.54993925e-02 1.70653202e-02
      1.45230768e-02 3.28863859e-02 3.35003249e-02 3.72151956e-02
      6.80141672e-02 1.01677224e-01 4.12867181e-02 2.21720617e-02
      1.32793831e-02 8.53885338e-03 3.01971361e-02 1.15703624e-02
      3.94440256e-03 1.90571100e-02 2.40148716e-02 3.50453332e-02
      3.27434577e-02 1.87346414e-02 1.57926958e-02 3.07019260e-02
      3.98728475e-02 1.10185392e-01 7.74322078e-02 4.60537598e-02
      3.29358876e-02 4.03247923e-02 4.06454429e-02 3.22406366e-02
      3.93220931e-02 1.36832595e-01 2.62662977e-01 2.05036297e-01
      1.56679466e-01 1.81838766e-01 6.40472025e-02 1.29596934e-01
      1.11040354e-01 9.01607797e-02 7.39236847e-02 4.91037518e-02
      1.20464094e-01 2.62662977e-01 2.62662977e-01 1.94696367e-01
      2.47193083e-01 1.44094855e-01 9.62807909e-02 4.76001464e-02
      1.64026804e-02 2.11303048e-02 2.89644785e-02 5.40375859e-02
      7.68561438e-02 1.34141698e-01 1.52071223e-01 1.15640923e-01
      3.25398818e-02 5.68378642e-02 2.43592355e-02 2.35309731e-02
      3.61136124e-02 7.59920776e-02 4.73899171e-02 2.81536654e-02
      2.72660032e-02 3.86575460e-02 6.06144778e-02 6.00338206e-02
      8.39448497e-02 1.32044166e-01 1.38732523e-01 1.50357366e-01
      8.15466493e-02 5.48287816e-02 3.10653225e-02 3.03193089e-02
      1.31166175e-01 2.62662977e-01 2.62662977e-01 1.14306174e-01
      8.88185278e-02 5.48072010e-02 2.35285833e-02 1.84942633e-02
      2.52835508e-02 4.57428247e-02 8.18538293e-02 6.06287420e-02
      5.74274473e-02 5.30906804e-02 7.62731507e-02 2.74983104e-02
      2.44544097e-03 3.80216190e-03 8.00540857e-03 1.06934616e-02
      7.32750492e-03 1.00973556e-02 6.12626458e-03 3.66797834e-03
      1.74494239e-03 6.16208697e-03 7.44227087e-03 1.25435535e-02
      2.36369055e-02 3.66121233e-02 3.13580334e-02 2.69822050e-02
      2.23255455e-02 1.22869508e-02 3.04495357e-02 4.51071858e-02
      6.33796975e-02 9.94476452e-02 4.40443121e-02 8.10059719e-03
      1.28347836e-02 4.21634829e-03 1.39273447e-03 9.49122570e-03
      5.13255484e-02 7.52128735e-02 1.73893608e-02 6.10336941e-03
      9.62148188e-04 6.25376822e-04 1.96607434e-03 3.54801212e-03</_>
    <_>
      1.28197912e-02 7.41479732e-03 5.20781940e-03 9.57630388e-03
      5.14284112e-02 1.20069981e-02 7.91336596e-03 1.10021345e-02
      1.63349006e-02 6.95736781e-02 3.93262468e-02 3.95555235e-02
      3.88849042e-02 9.65547934e-02 1.83507893e-02 1.41679887e-02
      2.51943786e-02 9.10464004e-02 5.59440181e-02 4.28005643e-02
      1.99330747e-02 9.23007540e-03 1.48847327e-02 1.17971078e-02
      3.24152522e-02 7.24752024e-02 1.20826237e-01 1.91376321e-02
      1.08344583e-02 2.46486720e-03 5.88271767e-03 6.98541617e-03
      1.42372809e-02 4.32298668e-02 4.39774841e-02 3.14473733e-02
      2.98863426e-02 4.56697047e-02 4.88343015e-02 8.21397975e-02
      1.95907936e-01 6.81738034e-02 4.20498699e-02 2.06200667e-02
      2.64648870e-02 1.46438092e-01 1.73381269e-01 1.09085791e-01
      1.26590744e-01 2.44710401e-01 1.15666896e-01 4.25275750e-02
      5.96989766e-02 1.36534736e-01 2.44710401e-01 1.85746863e-01
      5.42830192e-02 1.50089730e-02 1.62118636e-02 2.94345561e-02
      3.81655209e-02 9.58282948e-02 1.95747092e-01 8.01367089e-02
      5.67840934e-02 2.00477131e-02 1.26584852e-02 1.28207207e-02
      1.69082526e-02 3.85712385e-02 4.80679683e-02 4.69844528e-02
      8.67338628e-02 8.92444625e-02 5.79498112e-02 5.12185246e-02
      5.19924238e-02 3.64326574e-02 6.37784004e-02 4.79937457e-02
      5.63049614e-02 1.74062476e-01 2.04177648e-01 2.13032395e-01
      1.13171130e-01 6.43890128e-02 7.45756179e-02 9.17800739e-02
      8.10516998e-02 1.15327150e-01 1.62820920e-01 1.70470208e-01
      2.44710401e-01 1.87332571e-01 5.79550005e-02 6.48138076e-02
      1.09952427e-01 5.90684153e-02 1.41115993e-01 6.70202374e-02
      1.19204596e-01 6.70467392e-02 4.03493755e-02 5.60783148e-02
      2.96224058e-02 1.39619447e-02 1.14062084e-02 2.10345294e-02
      5.19079193e-02 3.09760366e-02 4.91008814e-03 2.82488484e-03
      5.54528926e-03 6.87610824e-03 7.89918005e-03 1.11065675e-02
      3.73780690e-02 8.16461146e-02 9.34377089e-02 3.91593911e-02
      2.57667005e-02 2.01657303e-02 2.97677610e-02 1.79159418e-02
      2.20279172e-02 4.06916887e-02 5.12580462e-02 9.59589109e-02
      1.41323775e-01 1.33696869e-01 5.94194047e-02 3.39624546e-02
      4.09866311e-02 6.76582083e-02 7.52855465e-02 4.07928303e-02
      6.92208111e-02 3.51028331e-02 3.06843743e-02 4.50118929e-02
      3.25296037e-02 3.48275863e-02 3.18648666e-02 3.23378965e-02</_>
    <_>
      1.70991570e-02 1.51649872e-02 7.19719147e-03 9.14859865e-03
      6.76200027e-03 8.54566507e-03 4.09021229e-03 6.71396358e-03
      1.42576722e-02 7.16458783e-02 3.73286381e-02 9.25058313e-03
      9.79521498e-03 7.60470098e-03 6.18161354e-03 1.50150722e-02
      6.21570386e-02 1.34121105e-01 9.65590477e-02 4.88189273e-02
      6.53145164e-02 1.05586629e-02 5.99125493e-03 4.79091192e-03
      1.00658434e-02 4.50266153e-02 1.76572174e-01 2.60719266e-02
      3.99628058e-02 3.27565782e-02 2.33830046e-03 3.99748143e-03
      6.69247471e-04 1.72553696e-02 2.79923789e-02 3.94517556e-02
      2.96781939e-02 3.57844606e-02 6.81258515e-02 9.49216858e-02
      6.28817007e-02 3.30595151e-02 2.69626025e-02 2.23275498e-02
      1.98452696e-02 7.07699582e-02 9.45189148e-02 1.15704127e-01
      2.39852965e-01 2.45050892e-01 1.38959974e-01 6.23616353e-02
      4.95861731e-02 5.78310825e-02 6.84621856e-02 5.71543574e-02
      4.96357903e-02 2.41437390e-01 2.45050892e-01 1.09545276e-01
      8.46544728e-02 1.55826971e-01 1.31255552e-01 9.99475271e-03
      8.59697722e-03 1.12828948e-02 5.02807088e-03 7.11826468e-03
      2.28487756e-02 7.23350570e-02 8.81068930e-02 5.54542542e-02
      2.73461156e-02 1.38402013e-02 2.08037943e-02 4.74585108e-02
      7.67911747e-02 7.52560943e-02 5.56367040e-02 4.08299491e-02
      3.41722034e-02 5.73657714e-02 2.73495931e-02 1.09695494e-01
      1.49094746e-01 2.45050892e-01 2.45050892e-01 1.04640752e-01
      5.21837026e-02 6.26581609e-02 1.63310155e-01 1.29157618e-01
      1.42103240e-01 1.31553158e-01 2.27720082e-01 2.45050892e-01
      9.33944508e-02 3.62622924e-02 4.41437364e-02 8.70452449e-02
      5.01109287e-02 3.61327715e-02 1.61106493e-02 1.19295437e-02
      1.68332737e-02 2.53452659e-02 1.56014487e-02 3.79932299e-02
      2.23564338e-02 6.00815658e-03 5.98430960e-03 9.25656967e-03
      8.57251137e-03 1.59051139e-02 1.00271842e-02 1.80531945e-02
      4.05346863e-02 1.13100559e-01 2.69323140e-02 1.10000214e-02
      9.82978567e-03 1.53522743e-02 2.66572256e-02 1.98776927e-02
      2.94595417e-02 1.09354466e-01 1.90522060e-01 6.51574656e-02
      1.20695597e-02 9.16930009e-03 2.52171978e-02 4.01815660e-02
      1.17169740e-02 3.22768204e-02 9.12605450e-02 6.24867827e-02
      6.02816567e-02 2.09516902e-02 1.70852747e-02 1.54274302e-02
      7.35918060e-03 4.30502091e-03 1.36426007e-02 2.91918740e-02</_>
    <_>
      1.07182227e-02 1.10524176e-02 8.80071707e-03 5.21801179e-03
      3.93941719e-03 2.43692449e-03 1.18140795e-03 8.29839497e-04
      1.54232595e-03 4.49197404e-02 4.02468219e-02 4.20560017e-02
      1.26945898e-02 1.77483056e-02 7.88644329e-03 9.33660567e-03
      4.94495034e-03 3.73810157e-02 4.86523472e-02 8.17743614e-02
      1.76345140e-01 2.13723071e-02 2.32510865e-02 1.47382822e-02
      1.47207640e-02 2.03001462e-02 6.41689673e-02 1.06172422e-02
      6.58107325e-02 1.22948006e-01 9.17930808e-03 8.33886862e-03
      4.18947730e-03 5.35016041e-03 9.83501226e-03 1.69274900e-02
      2.32147425e-02 1.89084560e-02 5.51305376e-02 7.99276307e-02
      5.26424982e-02 2.30433792e-02 1.89112872e-02 1.08785862e-02
      1.14151472e-02 6.17787279e-02 5.40628172e-02 7.61079565e-02
      1.40026391e-01 1.71584755e-01 1.46352634e-01 1.92664668e-01
      8.81946459e-02 7.08218440e-02 1.43082693e-01 2.01388389e-01
      2.10717142e-01 6.65517002e-02 5.15789539e-02 6.62655607e-02
      1.54823005e-01 2.13887572e-01 2.24558309e-01 3.81584875e-02
      5.31708971e-02 7.40917251e-02 7.25993700e-03 6.92467066e-03
      1.11845732e-02 4.39269990e-02 1.12127975e-01 1.06379509e-01
      2.31392179e-02 1.36164380e-02 2.36067493e-02 3.76289822e-02
      6.43964559e-02 6.87754080e-02 4.21239100e-02 2.94035580e-02
      2.33761109e-02 5.67042083e-02 7.16792941e-02 7.51498416e-02
      1.29534602e-01 2.26154789e-01 2.27305397e-01 1.54191554e-01
      7.48301744e-02 3.86315919e-02 1.31955177e-01 1.77834317e-01
      1.96064919e-01 1.08934648e-01 8.98962617e-02 1.00164942e-01
      2.27305397e-01 1.60296708e-01 1.41581312e-01 7.99794570e-02
      1.14951424e-01 8.07655528e-02 1.68051347e-02 1.27505241e-02
      1.77130550e-02 5.39067388e-02 4.49538566e-02 7.67349005e-02
      3.53579186e-02 9.85437445e-03 5.35783079e-03 5.18609956e-03
      5.21791819e-03 1.21947341e-02 1.02544650e-02 1.12019926e-02
      2.84037665e-02 8.09559003e-02 6.84665889e-02 1.71478372e-02
      8.43872689e-03 1.22347865e-02 2.14493647e-02 2.21816842e-02
      1.98329017e-02 4.77594100e-02 6.18471615e-02 7.66670778e-02
      2.51352489e-02 9.39165149e-03 2.09064465e-02 2.31081657e-02
      5.02731316e-02 7.43940473e-02 8.79847035e-02 7.23214597e-02
      5.20388149e-02 1.07150432e-02 1.86648290e-03 5.79570793e-03
      4.15884145e-03 2.12488640e-02 7.42602125e-02 1.12108737e-01</_>
    <_>
      1.50048621e-02 1.42958229e-02 5.79703785e-03 5.65235596e-03
      4.84808581e-03 8.62532575e-03 7.25903688e-03 6.95503876e-03
      7.05062039e-03 9.36267674e-02 2.83224937e-02 6.61212858e-03
      4.58433665e-03 6.29421324e-03 5.48538845e-03 1.11158146e-02
      3.35603431e-02 1.30855978e-01 1.28287852e-01 4.81251739e-02
      3.19852121e-02 8.22551362e-03 7.32505275e-03 3.26488470e-03
      1.68025109e-03 2.00169627e-02 1.57879233e-01 7.82953762e-03
      1.71749946e-02 2.90635359e-02 7.96908792e-03 5.17017161e-03
      5.69524104e-03 1.08066155e-02 2.05752887e-02 2.28355229e-02
      2.51820758e-02 2.45271921e-02 7.01115131e-02 1.02290928e-01
      4.40505780e-02 4.07421663e-02 1.70071144e-02 1.14184255e-02
      1.79066397e-02 1.06035292e-01 6.30135685e-02 7.19218627e-02
      1.80096149e-01 2.57621765e-01 1.81166545e-01 2.96213515e-02
      2.30228212e-02 4.76334095e-02 7.50591904e-02 6.62945881e-02
      6.56474084e-02 1.99741900e-01 2.57621765e-01 9.00605246e-02
      6.76209629e-02 1.22264326e-01 1.45543352e-01 1.25273932e-02
      1.54508557e-02 1.27492035e-02 8.62131547e-03 1.04726050e-02
      2.03002747e-02 4.82537746e-02 9.93430465e-02 4.90145460e-02
      1.67805366e-02 1.21781137e-02 1.79228969e-02 6.41564429e-02
      8.02935585e-02 8.45737606e-02 4.94200364e-02 3.31007205e-02
      2.49449555e-02 5.64874783e-02 3.35696451e-02 8.64693373e-02
      1.67188019e-01 2.57621765e-01 2.57621765e-01 8.59337077e-02
      3.59572992e-02 4.38575037e-02 1.32840484e-01 2.27927044e-01
      1.23235673e-01 1.26742080e-01 2.57621765e-01 2.57621765e-01
      1.21774964e-01 4.50826623e-02 3.96856628e-02 9.85506102e-02
      9.39207673e-02 4.38982621e-02 1.97580792e-02 1.61451399e-02
      1.45123266e-02 1.95845123e-02 1.03725968e-02 2.89272517e-02
      2.57207379e-02 7.61561468e-03 4.47940500e-03 1.23489955e-02
      4.37852973e-03 1.27631091e-02 1.60407443e-02 1.56715065e-02
      3.20351720e-02 1.36991948e-01 6.07701764e-02 1.02584762e-02
      1.50836417e-02 1.74484458e-02 2.61545684e-02 1.05000949e-02
      1.06172711e-02 5.91684356e-02 1.82120159e-01 6.23886473e-02
      6.71377312e-03 2.52252817e-03 1.09498315e-02 2.81340852e-02
      3.42870094e-02 3.42086293e-02 5.99152707e-02 2.24682484e-02
      1.44632338e-02 2.39322912e-02 1.29493726e-02 8.99687409e-03
      7.73166399e-03 3.93673964e-02 3.71096209e-02 1.30916499e-02</_>
    <_>
      2.98068058e-02 2.75927726e-02 1.39492759e-02 9.56276711e-03
      8.04410409e-03 6.34390023e-03 3.76576069e-03 5.86111518e-03
      4.00915965e-02 5.28888702e-02 2.01730244e-02 1.93735044e-02
      1.95043012e-02 1.09607745e-02 8.04525614e-03 2.39916407e-02
      8.32853168e-02 1.18966289e-01 5.10347225e-02 2.94622108e-02
      5.40083647e-02 2.95536630e-02 1.78635605e-02 1.03153409e-02
      1.00727370e-02 5.81425726e-02 9.59832221e-02 1.60688087e-02
      2.28937902e-02 8.18201974e-02 4.69798408e-02 2.24668812e-02
      8.03636760e-03 1.23887544e-03 1.11610834e-02 1.86646692e-02
      3.48423272e-02 5.20749576e-02 2.99666375e-02 7.17833117e-02
      5.07589467e-02 6.18248768e-02 4.03242931e-02 2.22191960e-02
      3.25013958e-02 7.67104328e-02 5.46165146e-02 8.65621194e-02
      2.25323141e-01 1.98738918e-01 1.56910464e-01 1.00597456e-01
      9.00203660e-02 1.28593802e-01 1.02704093e-01 9.24885273e-02
      1.44329920e-01 2.05644518e-01 2.51167715e-01 2.51167715e-01
      1.49645701e-01 1.79016843e-01 2.03617483e-01 9.36310664e-02
      2.86802445e-02 3.91724817e-02 3.97880189e-02 5.12645841e-02
      5.45237847e-02 1.00900181e-01 2.00054333e-01 1.90630868e-01
      2.78569032e-02 3.13611031e-02 8.96563102e-03 3.64607126e-02
      5.84537312e-02 8.41744244e-02 4.66882773e-02 2.96608936e-02
      1.56080052e-02 5.79383820e-02 2.05299594e-02 4.78162728e-02
      1.01211913e-01 1.78596511e-01 1.54201224e-01 6.83843791e-02
      6.27706945e-02 4.42234389e-02 3.68912816e-02 3.85690741e-02
      7.63727799e-02 2.51167715e-01 2.51167715e-01 1.81228101e-01
      7.77751058e-02 5.66860400e-02 2.61245128e-02 2.61178426e-02
      2.62635257e-02 3.04161869e-02 3.42803597e-02 5.94389588e-02
      5.80707975e-02 1.24392919e-01 1.26021922e-01 4.22833897e-02
      8.30309058e-04 2.08567386e-03 3.49146198e-03 8.83239880e-03
      1.83468796e-02 8.56460724e-03 8.41674954e-03 6.35737367e-03
      1.81450008e-03 7.48316897e-03 7.00684963e-03 1.62295625e-02
      3.01339533e-02 3.25644724e-02 2.17081159e-02 2.34253146e-02
      2.26661582e-02 8.08853749e-03 2.18137540e-02 6.41513839e-02
      4.66630310e-02 5.82788363e-02 4.94984388e-02 3.67799141e-02
      1.97655130e-02 5.12709655e-03 9.26000532e-03 1.53184002e-02
      3.70100215e-02 2.29128320e-02 5.45784924e-03 5.07058343e-03
      5.85838407e-03 6.50773942e-03 6.90644374e-03 1.18479384e-02</_>
    <_>
      3.16297747e-02 1.33845601e-02 1.96171813e-02 1.12168118e-02
      6.72737276e-03 7.45312450e-03 2.70669535e-03 5.31161809e-03
      3.21452171e-02 5.10013476e-02 1.32199991e-02 1.26596512e-02
      1.91931818e-02 2.48010512e-02 1.06951194e-02 3.24080251e-02
      8.54959041e-02 1.01588421e-01 2.57916152e-02 3.83989550e-02
      8.94233510e-02 5.90270944e-02 3.48160677e-02 1.19591914e-02
      3.27184536e-02 6.72776401e-02 6.33409545e-02 2.83604711e-02
      7.80851161e-03 3.53369266e-02 3.07495706e-02 2.09240764e-02
      4.96209040e-03 8.50377139e-03 3.56109180e-02 4.81189676e-02
      3.11402250e-02 2.96304710e-02 4.65189479e-02 5.41869327e-02
      7.33989924e-02 3.68757211e-02 2.08801348e-02 1.20094838e-02
      4.07893099e-02 6.26860932e-02 4.50114682e-02 9.03371647e-02
      1.78465798e-01 2.22282678e-01 1.24385290e-01 1.06165580e-01
      7.67490789e-02 7.62164146e-02 4.25910987e-02 5.92095219e-02
      1.82495773e-01 2.32561439e-01 2.38463074e-01 2.45933607e-01
      2.06163883e-01 2.15241849e-01 9.60649028e-02 6.40672892e-02
      5.54948580e-03 2.40367036e-02 1.39422193e-02 2.04298347e-02
      6.53912947e-02 1.56033918e-01 2.45933607e-01 1.11505978e-01
      3.02657690e-02 1.87480226e-02 7.12899677e-03 3.42963487e-02
      6.09860793e-02 8.33098590e-02 3.70674320e-02 2.79231053e-02
      3.02665401e-02 2.49397121e-02 2.96020377e-02 6.84995949e-02
      1.32851779e-01 1.94473580e-01 1.41571984e-01 5.83870411e-02
      5.19589931e-02 7.33620301e-02 1.75345112e-02 5.65277152e-02
      1.22556016e-01 2.45933607e-01 2.45933607e-01 2.45933607e-01
      4.11267392e-02 1.72829349e-02 3.29932459e-02 2.31704023e-02
      3.45373638e-02 5.46845198e-02 3.49986590e-02 7.03510419e-02
      7.57988393e-02 7.06153065e-02 4.69749197e-02 2.30565984e-02
      2.82649323e-03 1.12085254e-03 9.08845512e-04 5.28368633e-03
      1.59009937e-02 1.61542930e-02 1.41246282e-02 1.54853221e-02
      5.90003980e-03 1.03653176e-02 6.58029923e-03 1.70740020e-02
      3.11789569e-02 3.10908090e-02 3.64534892e-02 2.61565913e-02
      3.12609710e-02 1.28226019e-02 1.89746544e-02 7.86172301e-02
      7.94975758e-02 1.17909364e-01 4.43274416e-02 8.48104246e-03
      3.90507514e-03 2.21326202e-03 1.04844328e-02 1.51284179e-02
      3.92080992e-02 2.95352675e-02 1.28582250e-02 1.48235755e-02
      2.59005791e-03 2.24934099e-03 4.28109663e-03 9.32184141e-03</_>
    <_>
      3.99457403e-02 4.09066230e-02 2.17367504e-02 2.01532189e-02
      1.38713233e-02 1.04107270e-02 8.58908147e-03 1.27133951e-02
      2.81653795e-02 8.14771131e-02 4.24524918e-02 3.47119570e-02
      5.08754700e-02 3.43769528e-02 2.62797736e-02 3.95520665e-02
      1.00211829e-01 1.07022405e-01 7.22384974e-02 5.04781380e-02
      6.85447380e-02 4.73209321e-02 4.69050892e-02 7.19633028e-02
      5.25135510e-02 9.26197916e-02 9.26764458e-02 2.12146901e-02
      1.77244153e-02 7.53023475e-02 5.65459915e-02 3.11561320e-02
      1.88959502e-02 1.26503855e-02 1.29862837e-02 3.44410427e-02
      3.98066156e-02 6.13387823e-02 2.66775079e-02 5.74292168e-02
      6.39412403e-02 8.43159705e-02 5.53432256e-02 1.85278878e-02
      1.59302838e-02 6.07292466e-02 7.72945434e-02 1.11379072e-01
      2.13720098e-01 1.86650127e-01 1.55153692e-01 1.16156340e-01
      8.45884010e-02 6.78316280e-02 5.39970025e-02 6.37858957e-02
      1.12015635e-01 2.59874552e-01 2.59874552e-01 2.59874552e-01
      2.13915616e-01 1.30609542e-01 1.07859835e-01 7.15044960e-02
      1.94216445e-02 2.23493483e-02 3.95018496e-02 4.55479659e-02
      8.73446763e-02 1.70592800e-01 1.79773435e-01 2.25288227e-01
      9.15285200e-03 2.03964822e-02 2.02257559e-02 3.65951993e-02
      5.10580987e-02 7.21356496e-02 3.73106971e-02 2.44511385e-02
      1.96985453e-02 2.37138383e-02 2.93549038e-02 5.29630519e-02
      1.19363785e-01 1.15201078e-01 1.04479097e-01 6.46270439e-02
      6.81843013e-02 5.97739592e-02 3.84146720e-02 8.63474980e-02
      1.06208883e-01 2.59874552e-01 2.59874552e-01 1.45034790e-01
      8.02315995e-02 3.70186493e-02 2.58849375e-02 3.17271352e-02
      5.12221046e-02 5.53310812e-02 3.81058380e-02 2.12955624e-02
      3.54858488e-02 9.65384319e-02 8.27216506e-02 3.95228751e-02
      3.85573279e-04 1.83078018e-03 3.33000114e-03 9.42345522e-03
      1.75768211e-02 9.56164580e-03 7.47186271e-03 2.48534000e-03
      1.37668184e-03 6.87203789e-03 1.24002956e-02 1.97113231e-02
      4.42976616e-02 3.16831470e-02 1.32346023e-02 1.50535451e-02
      1.43222008e-02 8.79611913e-03 2.68028453e-02 7.50931576e-02
      4.51615453e-02 3.95685360e-02 3.30509469e-02 2.16643885e-02
      7.07572699e-03 6.89568277e-03 9.89426300e-03 1.35999946e-02
      3.12726907e-02 1.38305277e-02 4.87871049e-03 1.32754082e-02
      3.72424955e-03 2.32114014e-03 7.27335783e-03 1.05901090e-02</_>
    <_>
      6.69669267e-03 6.51278067e-03 6.28392585e-03 1.18576167e-02
      1.04648713e-02 1.23176295e-02 1.35714756e-02 1.15513401e-02
      6.15279190e-03 2.97496058e-02 7.03248102e-03 4.29107016e-03
      1.06239086e-02 2.34709773e-02 2.79937331e-02 6.85968921e-02
      1.10456511e-01 9.46434587e-02 4.51301225e-02 7.97222834e-03
      2.42303431e-04 7.13935588e-04 7.60747865e-03 9.15096793e-03
      1.10005744e-01 1.55555099e-01 1.10360660e-01 2.98492387e-02
      5.08679717e-04 3.82824987e-03 7.05424789e-03 3.80805880e-03
      7.10233726e-05 3.85190286e-02 5.68234250e-02 6.04853779e-02
      2.68542841e-02 2.21014377e-02 5.15877716e-02 7.82114789e-02
      2.92986482e-02 1.42288422e-02 1.32913683e-02 1.11292228e-02
      2.21736450e-02 3.71429436e-02 2.68727411e-02 5.15388101e-02
      1.38798997e-01 2.18204722e-01 1.19216703e-01 1.72617286e-01
      6.12744838e-02 3.95356454e-02 1.89809315e-02 2.11596116e-02
      4.41889241e-02 1.14827685e-01 2.17905760e-01 1.28437132e-01
      2.25824654e-01 1.30301818e-01 4.17005979e-02 1.98020991e-02
      2.18322370e-02 2.93091740e-02 3.26129049e-02 5.66487685e-02
      2.35245861e-02 7.98131973e-02 9.11742449e-02 3.59760597e-02
      1.97064653e-02 1.32895401e-02 1.49308015e-02 1.49197346e-02
      2.63287593e-02 5.01068160e-02 4.80706692e-02 4.72634397e-02
      4.27023768e-02 1.25700086e-01 1.00679994e-01 1.09730169e-01
      1.11882113e-01 1.63841039e-01 1.77542806e-01 1.21006541e-01
      5.27434014e-02 1.05823211e-01 2.34058529e-01 2.34058529e-01
      2.34058529e-01 1.50129825e-01 1.43890873e-01 1.34779692e-01
      4.50790562e-02 2.17834413e-02 9.99167114e-02 1.27959549e-01
      1.77013263e-01 1.19233377e-01 6.92670979e-03 2.64972933e-02
      2.67013628e-02 1.33542549e-02 1.07795019e-02 5.84042706e-02
      2.47010961e-02 1.99992359e-02 4.88091400e-03 1.40568486e-03
      5.69922291e-03 1.64821893e-02 1.36449486e-02 1.73134487e-02
      2.54592244e-02 1.04621649e-01 8.48400667e-02 2.87721921e-02
      1.50097432e-02 2.77438350e-02 3.36926617e-02 5.77521250e-02
      3.97083163e-02 5.68261072e-02 2.34058529e-01 1.24321572e-01
      3.69935818e-02 1.08242584e-02 3.92540805e-02 3.93791534e-02
      1.10537790e-01 2.88903564e-02 1.06991351e-01 1.09339625e-01
      6.04224391e-02 1.53239127e-02 2.66725291e-03 5.65741397e-03
      5.23262843e-03 9.41934716e-03 8.02153721e-03 5.45318797e-02</_>
    <_>
      9.91241913e-03 1.53405042e-02 2.49355156e-02 1.29159801e-02
      7.58366706e-03 5.82024688e-03 7.65984133e-03 1.28793037e-02
      1.02952374e-02 2.27445941e-02 2.39049289e-02 3.95874567e-02
      2.64082644e-02 1.42995361e-02 1.73252914e-02 4.43739258e-02
      5.39348125e-02 4.32183780e-02 2.89534088e-02 3.86656523e-02
      3.48544605e-02 6.12679087e-02 2.32106131e-02 1.78777669e-02
      8.26554447e-02 1.41982287e-01 7.31476024e-02 4.59079072e-02
      1.42765474e-02 2.29917951e-02 2.82081012e-02 1.31548857e-02
      1.05825281e-02 3.59897651e-02 5.45392074e-02 4.24158312e-02
      3.56553383e-02 5.12185246e-02 6.86208606e-02 9.28175896e-02
      5.87715097e-02 4.66147549e-02 1.98569074e-02 3.29762958e-02
      2.67305542e-02 3.89518142e-02 1.05608352e-01 1.82963803e-01
      2.38970444e-01 1.80233270e-01 1.58366233e-01 1.17612019e-01
      8.18423629e-02 5.53547069e-02 2.41939481e-02 2.54579019e-02
      8.88056606e-02 2.51558393e-01 2.51558393e-01 2.51558393e-01
      1.56201139e-01 1.47008494e-01 6.06347471e-02 3.23035270e-02
      6.38188142e-03 9.21876635e-03 2.50732079e-02 3.47670875e-02
      9.01046470e-02 1.12549774e-01 1.46257356e-01 5.88607527e-02
      2.45736744e-02 3.66158038e-02 3.06539610e-02 4.74513099e-02
      5.29733002e-02 8.82536024e-02 4.24593575e-02 4.09041531e-02
      2.30614655e-02 3.17972191e-02 1.72588360e-02 9.20487940e-02
      1.33408055e-01 1.64055347e-01 2.02592492e-01 1.53149754e-01
      1.04418151e-01 5.93273006e-02 1.95508711e-02 1.51583776e-02
      9.35619548e-02 2.50268042e-01 2.51558393e-01 2.51558393e-01
      7.65738040e-02 2.32520234e-02 2.26375554e-02 5.80793060e-03
      1.07908845e-02 6.59665689e-02 8.81926194e-02 8.23608711e-02
      7.43663609e-02 4.81649712e-02 1.10165961e-02 6.96065091e-03
      3.77565506e-03 2.28621694e-03 1.86720851e-03 9.35827568e-03
      1.69385187e-02 1.77180022e-02 1.33978548e-02 9.43059009e-03
      7.23046158e-03 3.63623793e-03 4.03332291e-03 1.32035585e-02
      3.18041332e-02 3.56388614e-02 3.88956591e-02 2.63321605e-02
      2.72261184e-02 2.49605086e-02 1.73346885e-02 4.15162444e-02
      6.52915612e-02 1.32602945e-01 8.18041489e-02 1.83713809e-02
      7.70222163e-03 5.08862874e-03 8.04311037e-03 1.03804003e-02
      2.20328197e-02 5.35212941e-02 2.46875565e-02 1.12697417e-02
      2.82732188e-03 1.24551274e-03 1.70081330e-03 5.58733800e-03</_>
    <_>
      8.96690821e-04 6.73637667e-04 7.93991610e-04 1.24342449e-03
      8.20661709e-03 1.63771082e-02 1.33538963e-02 4.51712916e-03
      8.12352635e-04 4.85719694e-03 3.99408769e-03 1.32029306e-03
      7.74201239e-03 2.31970027e-02 4.67489734e-02 5.84206395e-02
      2.88139042e-02 7.26584624e-03 1.05527546e-02 5.17893489e-03
      4.14359290e-03 7.11114798e-03 1.91289373e-02 3.03444620e-02
      9.95839462e-02 7.44207278e-02 2.23216321e-02 5.65927755e-03
      1.60774421e-02 4.04995978e-02 4.79898192e-02 4.37536910e-02
      2.07594540e-02 4.33225930e-02 2.59009339e-02 1.14235748e-02
      1.62435919e-02 2.82856710e-02 3.43340002e-02 5.47236092e-02
      3.47203873e-02 2.16208491e-02 1.87822226e-02 2.25583371e-02
      1.63050517e-02 2.75235046e-02 5.49803786e-02 5.00000305e-02
      9.88974050e-02 1.36476934e-01 1.95895240e-01 1.40939802e-01
      5.06318919e-02 2.56704651e-02 1.80576995e-01 2.31151864e-01
      1.76855624e-01 6.00981824e-02 1.05692185e-01 1.99462742e-01
      1.47654727e-01 8.60042945e-02 1.11933492e-01 7.95491710e-02
      1.28031656e-01 1.21157534e-01 7.87496194e-02 8.60225037e-02
      7.50927180e-02 1.16659857e-01 7.95972347e-02 8.55746865e-02
      5.89011051e-02 4.97919321e-02 5.62380441e-02 4.53806929e-02
      3.95976231e-02 4.65685651e-02 4.00704890e-02 4.75551598e-02
      4.71465252e-02 8.89470205e-02 1.77268863e-01 1.08731598e-01
      1.76943794e-01 2.30261639e-01 1.71102986e-01 1.40829861e-01
      9.58438888e-02 4.63176928e-02 2.31151864e-01 2.26999536e-01
      7.93224350e-02 9.42574739e-02 1.26476035e-01 1.13569468e-01
      1.38287768e-01 1.48887411e-01 2.03535229e-01 1.12186648e-01
      6.29136860e-02 1.82216596e-02 1.03164427e-02 1.85782984e-02
      3.83309498e-02 5.58235832e-02 6.25558645e-02 1.43903837e-01
      2.61875242e-02 1.09210033e-02 8.33812915e-03 6.26324397e-03
      3.89165082e-03 3.87092913e-03 6.72580115e-03 5.17820893e-03
      2.83787120e-02 2.30806842e-02 2.40144096e-02 1.33392923e-02
      1.14179533e-02 5.64051047e-02 6.23764396e-02 9.33863521e-02
      1.83950067e-02 1.40986387e-02 1.40705295e-02 5.84384613e-03
      5.30072022e-03 2.62166513e-03 7.25789964e-02 8.62576589e-02
      1.63792104e-01 7.56215751e-02 2.70297620e-02 6.92464272e-03
      3.15810950e-03 2.80077686e-03 1.95591594e-03 5.05571859e-03
      6.74823346e-03 8.96997377e-03 1.36705060e-02 1.34629197e-02</_>
    <_>
      1.43520692e-02 3.48231681e-02 2.45438535e-02 9.66589339e-03
      8.73364881e-03 1.38525842e-02 4.60100956e-02 2.51359474e-02
      1.35823069e-02 6.85787573e-02 6.43210933e-02 3.20380516e-02
      1.51590873e-02 3.09087746e-02 1.61402002e-02 6.35329112e-02
      1.04590282e-01 1.79140702e-01 5.69592565e-02 2.86355522e-02
      7.22638052e-03 2.20002863e-03 2.67198309e-02 5.70446113e-03
      5.71650639e-02 1.99362680e-01 2.51171649e-01 1.54659096e-02
      5.15473261e-03 1.58029527e-03 1.64141750e-03 1.14248842e-02
      1.03966082e-02 1.17923647e-01 1.50969177e-01 8.15390572e-02
      5.38214408e-02 7.83171654e-02 1.52229518e-01 1.07911125e-01
      5.72208166e-02 3.64005119e-02 2.84347013e-02 2.09532697e-02
      3.88992839e-02 9.67331678e-02 9.21942964e-02 7.44174272e-02
      3.03558055e-02 1.37138531e-01 3.92157584e-02 6.07821085e-02
      3.32694501e-02 6.09115325e-02 1.97843779e-02 7.05803791e-03
      1.38762500e-02 4.71681589e-03 5.70524968e-02 1.22994268e-02
      4.51627485e-02 3.63696888e-02 3.08074243e-02 1.96433105e-02
      1.41256321e-02 2.10898016e-02 1.68930944e-02 5.10684028e-02
      4.00645807e-02 1.43043071e-01 7.54194409e-02 2.58003864e-02
      4.13330756e-02 2.85663307e-02 4.26051095e-02 2.05536298e-02
      9.97400358e-02 1.40640661e-01 1.26305670e-01 9.58792716e-02
      5.49015701e-02 7.55729973e-02 2.46642195e-02 3.92358787e-02
      2.57305875e-02 2.51081169e-01 1.35077462e-01 1.23617031e-01
      5.87372892e-02 8.65922347e-02 4.23893221e-02 1.11502610e-01
      1.52914286e-01 1.83776505e-02 8.26669931e-02 7.92847387e-03
      1.67342704e-02 5.82544738e-03 2.59917602e-02 5.57172671e-02
      1.73936769e-01 1.92149505e-01 4.25697416e-02 3.17334905e-02
      7.87238684e-03 1.12688513e-02 9.13698412e-03 2.22815201e-02
      1.85967516e-02 6.16138428e-03 2.07559224e-02 1.47813112e-02
      1.16299987e-02 3.25129963e-02 6.60187230e-02 6.79609552e-02
      5.22354133e-02 1.68538809e-01 1.06190264e-01 3.60763669e-02
      1.23527860e-02 6.57728314e-02 5.25895730e-02 4.86378334e-02
      1.05840206e-01 1.46063089e-01 1.88628390e-01 2.51171649e-01
      2.09437177e-01 5.65277087e-03 4.71949130e-02 2.42007542e-02
      8.12706128e-02 3.37939635e-02 8.48736465e-02 1.96073890e-01
      1.67203084e-01 8.91979709e-02 4.63615032e-03 1.39422985e-02
      7.23139290e-03 1.79838408e-02 1.70688573e-02 5.33756725e-02</_>
    <_>
      3.67219211e-03 3.61621147e-03 4.15531406e-03 4.90586460e-03
      8.37499090e-03 8.75880197e-03 9.13653616e-03 5.20882057e-03
      3.29670170e-03 6.68685976e-03 4.36942885e-03 4.31651669e-03
      6.03587227e-03 2.23688874e-02 4.87748422e-02 7.74927065e-02
      3.51887420e-02 9.88208596e-03 1.33253522e-02 1.19035263e-02
      1.08119389e-02 9.16212797e-03 2.35668290e-02 3.04495543e-02
      5.90637885e-02 5.84473014e-02 2.35976391e-02 6.46642689e-03
      1.03276065e-02 2.29034163e-02 2.68355440e-02 3.80390063e-02
      3.50852758e-02 2.23868508e-02 2.55693030e-02 9.53108538e-03
      2.32233796e-02 2.85922755e-02 2.79750526e-02 5.84265403e-02
      6.37680814e-02 2.27640141e-02 1.22568104e-02 1.72732938e-02
      2.64563896e-02 3.02933212e-02 3.17480676e-02 4.83470447e-02
      7.51566216e-02 1.61658272e-01 1.77215502e-01 1.40379876e-01
      4.74442914e-02 4.19893712e-02 1.77626193e-01 2.37421110e-01
      2.16955811e-01 5.51904067e-02 1.30503327e-01 1.68980286e-01
      1.29351169e-01 4.74561565e-02 1.03169441e-01 1.81669742e-01
      1.61924452e-01 9.00484696e-02 2.23374907e-02 2.88443808e-02
      5.60485274e-02 1.09303765e-01 4.15278599e-02 5.94787970e-02
      6.01275824e-02 5.72251417e-02 2.88644135e-02 3.84017937e-02
      3.08648888e-02 2.47781128e-02 4.08740267e-02 6.33503348e-02
      3.15103158e-02 1.58007979e-01 1.56455860e-01 1.24925040e-01
      9.57254097e-02 1.58000514e-01 1.81952894e-01 1.57764807e-01
      6.21168613e-02 6.53303787e-02 2.37421110e-01 2.14214310e-01
      1.15073435e-01 7.23239109e-02 1.23410515e-01 1.63762435e-01
      1.60090446e-01 9.19474959e-02 1.99468270e-01 2.37421110e-01
      6.05881065e-02 8.46671220e-03 6.20247982e-03 7.87803251e-03
      2.02735271e-02 4.51186560e-02 3.46815847e-02 9.47596356e-02
      2.90557295e-02 1.42077049e-02 5.50858071e-03 2.01369449e-03
      4.30975761e-03 1.32050412e-03 5.39586227e-03 1.08877867e-02
      9.29495506e-03 4.12756391e-02 3.03379893e-02 1.06986798e-02
      1.27479155e-02 4.50843722e-02 7.28369355e-02 1.07322648e-01
      1.45604536e-02 1.22341709e-02 2.56102663e-02 2.29098052e-02
      1.13660218e-02 1.26012266e-02 6.05500676e-02 9.39712822e-02
      1.78228751e-01 6.00478314e-02 3.91498618e-02 1.05173904e-02
      8.71681888e-03 4.31380654e-03 1.75651873e-03 1.08822910e-02
      5.32443589e-03 8.28701258e-03 1.09363617e-02 1.87516101e-02</_>
    <_>
      1.22060012e-02 8.48336797e-03 8.85378197e-03 1.64362472e-02
      1.17900278e-02 3.87496641e-03 4.68311179e-03 1.24525670e-02
      8.46598949e-03 1.61981694e-02 8.72605667e-03 5.76578127e-03
      1.21706575e-02 3.21224667e-02 5.27912751e-02 7.46871680e-02
      5.14496639e-02 2.06648074e-02 5.39449742e-03 8.98097642e-03
      1.33144995e-02 2.95056477e-02 7.30339736e-02 1.69927850e-01
      1.34345204e-01 2.47747675e-02 6.62358804e-03 3.51099372e-02
      3.60893905e-02 1.52931595e-02 2.69321129e-02 2.61440929e-02
      3.46104056e-02 1.14927012e-02 3.49621242e-03 8.09866097e-03
      2.06398368e-02 3.06834970e-02 4.45477851e-02 1.08815253e-01
      1.03474423e-01 3.61614935e-02 1.88319702e-02 2.30570100e-02
      1.09127034e-02 4.20915000e-02 4.59329896e-02 5.47356345e-02
      1.02768466e-01 1.96838379e-01 2.17185482e-01 1.45216808e-01
      6.03004396e-02 4.99709211e-02 2.45546289e-02 3.68025638e-02
      5.35538234e-02 1.45589560e-01 2.67945081e-01 2.67945081e-01
      1.45507455e-01 4.17750925e-02 2.60134339e-02 4.71521579e-02
      6.61661625e-02 4.43704017e-02 1.15505390e-01 2.08911642e-01
      1.44509211e-01 1.18134767e-02 2.03553191e-03 1.14425644e-02
      6.92811012e-02 4.10437249e-02 3.72046158e-02 3.36157121e-02
      2.85490584e-02 4.92010526e-02 5.82026988e-02 5.88554703e-02
      1.11321464e-01 1.57692343e-01 2.04827249e-01 1.65888608e-01
      6.89170286e-02 7.85261765e-02 1.64552346e-01 1.64453179e-01
      1.08005472e-01 1.11154869e-01 2.35793799e-01 1.81618974e-01
      1.19131021e-01 1.03088878e-01 1.88743696e-01 1.31062165e-01
      9.42529738e-02 1.46173626e-01 2.06112102e-01 4.39319015e-02
      6.13947064e-02 5.53296618e-02 9.16987062e-02 7.67759308e-02
      1.88866463e-02 3.39089567e-03 4.76241624e-03 1.68906711e-02
      2.62520090e-02 1.19615234e-02 4.58629429e-03 4.52337880e-03
      3.50057497e-03 1.65260769e-03 5.06784394e-03 9.96552128e-03
      3.35892513e-02 4.25929166e-02 3.83233503e-02 1.80540606e-02
      2.32038531e-03 2.96250870e-03 3.92646471e-04 3.07263015e-03
      7.58830924e-03 3.53577882e-02 1.51305748e-02 6.89800316e-03
      4.25202167e-03 5.78880659e-04 2.36131111e-03 0. 7.10105465e-04
      4.16009862e-04 6.96322881e-03 2.09121406e-03 8.16595915e-04
      7.15616043e-04 3.41944891e-04 6.34682539e-04 1.79263152e-05
      2.64789764e-04 1.78869494e-04 1.12549518e-03</_>
    <_>
      1.47529710e-02 6.74646022e-03 7.65691325e-03 6.11372571e-03
      4.12627449e-03 2.79601570e-03 9.32296645e-03 2.51545683e-02
      2.69310791e-02 1.05819833e-02 1.53115531e-02 8.55767131e-02
      5.52445054e-02 1.71240307e-02 4.91924258e-03 1.66817624e-02
      3.88389304e-02 2.98994202e-02 1.64469201e-02 7.35306516e-02
      1.45412326e-01 6.02034032e-02 2.12916899e-02 3.50824860e-03
      2.43562786e-03 5.60640311e-03 9.82995145e-03 1.67568214e-02
      1.94417424e-02 1.48750488e-02 2.85828533e-03 2.29332387e-03
      9.08893591e-04 1.44230272e-03 2.26811436e-03 9.80801973e-03
      3.28324027e-02 3.34225371e-02 4.48962487e-02 5.08600771e-02
      4.17259261e-02 3.95096131e-02 3.57465483e-02 5.25943562e-02
      3.65962498e-02 4.14568074e-02 4.35788333e-02 1.19560905e-01
      1.96687236e-01 1.58693492e-01 1.36379510e-01 1.86211199e-01
      2.02153429e-01 8.36521760e-02 2.04852551e-01 1.12491079e-01
      6.92770779e-02 1.10875756e-01 1.48607805e-01 1.02775082e-01
      2.25502715e-01 2.16529682e-01 2.25502715e-01 1.75169185e-01
      8.47851932e-02 8.02935436e-02 4.91830297e-02 7.81633519e-03
      1.04999775e-02 3.85786146e-02 5.97703494e-02 1.46084756e-01
      2.22135894e-02 1.82381030e-02 1.28990747e-02 3.21873911e-02
      7.47543126e-02 6.39782399e-02 2.94148698e-02 3.10205556e-02
      2.19189357e-02 1.00973174e-02 2.74665225e-02 9.99554470e-02
      2.08042398e-01 1.81069925e-01 1.03230067e-01 7.16802627e-02
      5.95403090e-02 3.06510143e-02 2.36451700e-02 2.97348499e-02
      1.08826883e-01 2.25502715e-01 2.25502715e-01 1.52754247e-01
      1.67255744e-01 1.62774801e-01 6.44241422e-02 2.90619433e-02
      3.35131511e-02 8.32961798e-02 8.23905841e-02 8.88535529e-02
      6.17657155e-02 1.18461460e-01 9.89432409e-02 4.35947217e-02
      2.83950847e-03 3.69556877e-03 6.29200740e-03 9.76691861e-03
      1.00950915e-02 1.19060669e-02 9.13014635e-03 7.14189326e-03
      2.59039528e-03 8.31705704e-03 1.45746032e-02 5.96964955e-02
      7.32599348e-02 3.16771492e-02 1.68379135e-02 9.71028861e-03
      6.05947245e-03 9.16956924e-03 1.51414275e-02 6.35935739e-02
      1.47763208e-01 9.06123444e-02 4.00813259e-02 8.23865645e-03
      2.23786500e-03 1.85716106e-03 1.12283155e-02 6.95714587e-03
      3.83112170e-02 5.74930012e-02 1.16863493e-02 3.04919966e-02
      1.68991592e-02 2.23362837e-02 7.33656343e-03 9.99937207e-03</_>
    <_>
      3.94053338e-03 1.75837968e-02 5.62638938e-02 3.65878195e-02
      1.69359930e-02 1.27435392e-02 1.72111988e-02 7.83025753e-03
      3.17989686e-03 5.32018505e-02 4.46115695e-02 7.55765811e-02
      5.73970377e-02 6.53879717e-02 1.11807128e-02 1.32737942e-02
      2.20671184e-02 1.13562278e-01 1.00087665e-01 9.23031196e-03
      9.52964555e-03 3.35349608e-03 2.95629781e-02 5.98216709e-03
      2.23241299e-02 5.34456782e-02 2.42256507e-01 1.62160639e-02
      5.73765021e-03 2.22020946e-03 7.89958634e-04 1.09131793e-02
      1.63229369e-02 5.64957000e-02 1.06600016e-01 4.98280115e-02
      2.17025876e-02 5.72827235e-02 2.42399082e-01 1.24267735e-01
      7.96177834e-02 2.58090291e-02 1.84384193e-02 1.34586142e-02
      1.31060360e-02 3.51088382e-02 6.18134104e-02 1.68998942e-01
      8.60493109e-02 2.11987332e-01 4.67567593e-02 3.72082405e-02
      1.39313936e-02 2.83820443e-02 1.21835340e-02 4.12836624e-03
      2.09672637e-02 1.19505050e-02 6.06250763e-02 8.08557589e-03
      2.78808512e-02 1.16415489e-02 1.43490406e-02 6.28831703e-03
      1.24145430e-02 4.73331586e-02 2.47828830e-02 6.38461262e-02
      3.26455571e-02 6.07924089e-02 2.94704027e-02 8.73816293e-03
      4.26694527e-02 2.28400994e-02 4.99217883e-02 5.65035678e-02
      1.17781445e-01 9.05509591e-02 1.01336166e-01 5.40556163e-02
      6.86159953e-02 5.00800647e-02 2.14474667e-02 5.75412214e-02
      6.45256490e-02 2.62604266e-01 1.38511747e-01 7.98711926e-02
      8.58769491e-02 8.37804452e-02 1.15299977e-01 1.73851520e-01
      1.58562094e-01 3.09579819e-02 9.34445113e-02 6.91957027e-03
      2.18774881e-02 2.54357215e-02 6.61942661e-02 4.78498675e-02
      2.08156973e-01 1.99483499e-01 7.80225098e-02 4.87554148e-02
      3.96541320e-03 8.66665319e-03 1.58198271e-02 2.65428498e-02
      2.21604537e-02 3.08375387e-03 5.15635312e-03 6.19836804e-03
      6.26099808e-03 1.71602592e-02 8.32849145e-02 6.23761155e-02
      4.35863547e-02 2.62604266e-01 7.49745965e-02 1.35229453e-02
      5.20887785e-03 2.73038857e-02 2.31022555e-02 8.40947852e-02
      1.34875134e-01 1.58974722e-01 2.34126225e-01 2.62604266e-01
      1.78191185e-01 1.30789522e-02 2.45109741e-02 1.38347028e-02
      3.48864421e-02 5.69182374e-02 7.54738078e-02 5.17027862e-02
      9.05293524e-02 5.61166741e-02 2.55435556e-02 3.63352187e-02
      2.46056207e-02 3.87578122e-02 4.80314530e-02 3.11651230e-02</_>
    <_>
      1.23674860e-02 1.75479483e-02 1.12757133e-02 1.46793406e-02
      9.01932269e-03 5.60854841e-03 1.20438188e-02 3.13572623e-02
      3.07770558e-02 1.99326314e-02 2.46047471e-02 7.71343857e-02
      5.04383594e-02 2.71827355e-02 1.23227695e-02 2.96765361e-02
      7.73630515e-02 4.72751632e-02 4.00251262e-02 8.53813291e-02
      1.52991176e-01 5.72401248e-02 3.37789096e-02 1.00032082e-02
      7.64807640e-03 1.47387180e-02 1.80806834e-02 4.69049327e-02
      2.13653501e-02 1.18030785e-02 3.19194607e-03 2.35989899e-03
      8.41992442e-04 1.32101751e-03 2.16735853e-03 2.39515621e-02
      2.22787894e-02 4.39490974e-02 4.02301289e-02 6.69611841e-02
      6.13993332e-02 3.72762047e-02 4.59469147e-02 4.33114320e-02
      2.93546245e-02 4.36742380e-02 5.93495369e-02 1.08979806e-01
      1.72769412e-01 1.99112296e-01 1.52145192e-01 2.24481791e-01
      1.77690133e-01 7.02187791e-02 1.47388056e-01 9.16930884e-02
      1.03038192e-01 1.36399671e-01 2.31017739e-01 1.69473812e-01
      2.35765442e-01 2.35765442e-01 9.90372896e-02 1.72871515e-01
      4.52537835e-02 6.98635131e-02 5.43103777e-02 1.93746649e-02
      6.27364963e-03 6.65299371e-02 1.27656430e-01 1.19902670e-01
      1.90231316e-02 2.65654419e-02 1.40464380e-02 3.29468474e-02
      7.75183961e-02 7.11462051e-02 2.59140097e-02 3.24279219e-02
      2.87522990e-02 4.87247482e-03 3.36997919e-02 9.74304080e-02
      1.70452535e-01 1.72592118e-01 1.01948932e-01 5.95018864e-02
      5.93614355e-02 2.45886054e-02 1.15996003e-02 3.02298535e-02
      1.60304725e-01 2.35765442e-01 2.35765442e-01 1.15995236e-01
      9.26048607e-02 1.08083956e-01 1.91468485e-02 1.71107687e-02
      3.41030359e-02 7.85605982e-02 9.28770304e-02 7.68788233e-02
      3.98553349e-02 1.02550313e-01 1.09010570e-01 3.67639251e-02
      1.92427135e-03 5.31612756e-03 8.44459888e-03 1.18347164e-02
      8.12414661e-03 5.87418675e-03 6.10652566e-03 4.24875133e-03
      2.75529712e-03 6.19113911e-03 1.81827564e-02 4.95182835e-02
      4.88369092e-02 3.26942839e-02 1.41740730e-02 1.11818397e-02
      7.17864325e-03 6.35368470e-03 1.20167602e-02 8.23830292e-02
      1.70550898e-01 6.98013753e-02 3.93622443e-02 8.53726733e-03
      6.29213732e-03 2.28762254e-03 4.94977133e-03 1.15738651e-02
      5.70887029e-02 6.86394051e-02 8.77872948e-03 1.19801285e-02
      1.12489341e-02 7.29287928e-03 3.69896204e-03 6.43287273e-03</_>
    <_>
      3.23843993e-02 2.93892547e-02 2.77309958e-02 2.02501975e-02
      1.35229724e-02 4.17680806e-03 5.16466470e-03 2.63766944e-02
      3.08709238e-02 3.87335494e-02 2.51233522e-02 2.69615427e-02
      2.28867568e-02 1.28291156e-02 8.04665871e-03 3.63050513e-02
      7.67634362e-02 1.01457261e-01 7.41697103e-02 7.83531070e-02
      1.74745217e-01 1.08099431e-01 2.40665656e-02 7.77162984e-03
      9.02261492e-03 8.06793105e-03 6.44000098e-02 4.25074734e-02
      3.40296179e-02 5.21518029e-02 1.57618970e-02 6.95790630e-03
      1.00752036e-03 1.60935253e-03 1.23833132e-03 4.57227863e-02
      3.43643762e-02 4.23942879e-02 3.31053026e-02 3.80257368e-02
      5.46627827e-02 4.79030833e-02 3.42812128e-02 3.51426043e-02
      2.16370262e-02 4.56268862e-02 4.69891429e-02 1.11897610e-01
      1.59802049e-01 2.08044618e-01 1.63116604e-01 1.34410769e-01
      1.22856550e-01 1.13002807e-01 1.30149081e-01 9.45902914e-02
      1.45951316e-01 2.04112560e-01 2.42460579e-01 2.47159034e-01
      1.97463423e-01 1.49774626e-01 2.03581169e-01 1.28995329e-01
      2.17826162e-02 2.03540735e-02 1.27992863e-02 5.31613920e-03
      3.86887603e-02 1.09342337e-01 1.26064256e-01 2.47159034e-01
      2.07358319e-02 2.18955595e-02 2.21977364e-02 1.54747041e-02
      5.12866043e-02 9.04231593e-02 2.97064856e-02 3.39688808e-02
      1.76948309e-02 2.27380134e-02 2.13836189e-02 8.20377991e-02
      1.42121717e-01 1.34946138e-01 1.23187855e-01 4.81939130e-02
      5.11903316e-02 4.87277582e-02 2.00318601e-02 3.87621708e-02
      1.68512315e-01 2.47159034e-01 2.47159034e-01 1.27746984e-01
      6.77859932e-02 3.12765054e-02 2.01669578e-02 2.36101896e-02
      1.70707200e-02 4.11973298e-02 4.41328548e-02 3.07408087e-02
      4.02211435e-02 6.75743744e-02 4.46151048e-02 3.62287052e-02
      4.18761570e-04 3.58945667e-03 1.57510526e-02 1.21555524e-02
      9.63732880e-03 6.20485237e-03 2.77805957e-03 2.57970928e-03
      1.20560220e-03 2.90392712e-03 1.48601988e-02 4.75465804e-02
      6.00116625e-02 2.69725434e-02 1.03850830e-02 8.82389303e-03
      8.31068028e-03 6.32650033e-03 1.07197883e-02 5.98286353e-02
      1.21345885e-01 7.70896003e-02 3.83570977e-02 6.48929179e-03
      4.79676528e-03 7.15575507e-03 6.79525267e-03 9.72507987e-03
      4.38766107e-02 6.36294559e-02 1.00080222e-02 3.74593749e-03
      7.13647678e-05 0. 1.25445728e-03 5.02476469e-03</_>
    <_>
      2.49094628e-02 2.20558606e-02 9.70540754e-03 6.94229407e-03
      6.07362436e-03 8.01005773e-03 2.90533109e-03 2.14089174e-03
      1.48578491e-02 1.04571067e-01 4.69532274e-02 1.40587706e-02
      8.22897162e-03 4.83408617e-03 8.68486427e-03 1.25749595e-02
      3.61404158e-02 1.25973284e-01 1.14545129e-01 2.54214611e-02
      3.16403024e-02 2.28716247e-02 6.54020812e-03 6.04913523e-03
      1.68077815e-02 4.63815443e-02 1.89222693e-01 1.02292933e-02
      1.20371440e-02 1.33658452e-02 3.35838716e-03 3.77017749e-03
      4.13112901e-03 2.82529816e-02 4.10455652e-02 2.99118850e-02
      3.09618097e-02 5.02168946e-02 4.93172072e-02 7.81814680e-02
      7.45885223e-02 4.32834141e-02 3.15819308e-02 1.82501692e-02
      1.99477393e-02 5.41860424e-02 1.27937749e-01 8.40216205e-02
      2.05401361e-01 2.42435098e-01 1.76455408e-01 9.00788978e-02
      5.27696237e-02 3.06549482e-02 6.42518327e-02 4.58635725e-02
      3.85683216e-02 1.89820662e-01 2.42435098e-01 1.23935401e-01
      8.04070681e-02 9.05888900e-02 1.28367990e-01 1.59523692e-02
      1.22322654e-02 1.35794086e-02 7.14152865e-03 1.78279914e-02
      3.09163705e-02 7.15657994e-02 7.66559988e-02 3.34936082e-02
      2.12651584e-02 1.72714349e-02 2.63741575e-02 4.78734858e-02
      6.76914379e-02 7.06775561e-02 4.86578569e-02 4.34828438e-02
      3.20865363e-02 8.33170116e-02 7.74381310e-02 5.88001795e-02
      2.09232241e-01 2.42435098e-01 2.42435098e-01 1.35218710e-01
      7.00048283e-02 3.05508841e-02 1.66930556e-01 1.58467874e-01
      1.26135513e-01 1.40378371e-01 1.84488237e-01 2.42435098e-01
      1.31022334e-01 4.96567897e-02 4.67310399e-02 1.00534789e-01
      6.72492757e-02 5.10596372e-02 2.37220600e-02 2.05627661e-02
      2.25477088e-02 1.58060752e-02 1.03969937e-02 2.22272743e-02
      3.50852571e-02 1.81597192e-02 1.68951098e-02 1.20846154e-02
      1.10559389e-02 1.30456397e-02 1.19171618e-02 2.44287923e-02
      2.76399031e-02 1.42589942e-01 6.24499545e-02 2.89949216e-02
      9.71418433e-03 1.49187874e-02 3.09572294e-02 2.21453831e-02
      2.05012374e-02 5.91586754e-02 2.00712189e-01 7.39322007e-02
      1.75670628e-02 1.10386228e-02 2.07204614e-02 6.88450858e-02
      1.70420352e-02 5.72601780e-02 9.57556963e-02 6.37807921e-02
      6.07517511e-02 2.85646301e-02 2.57883742e-02 1.18234986e-02
      7.04728113e-03 8.46629497e-03 2.86452565e-02 3.04961782e-02</_>
    <_>
      1.19202177e-03 3.84253962e-03 4.49783029e-03 4.97328071e-03
      1.19842710e-02 1.29449917e-02 9.94655583e-03 3.12296581e-03
      2.54409271e-03 8.35981220e-03 7.00333109e-03 8.79861228e-03
      8.78465641e-03 1.81635749e-02 2.65824478e-02 1.07136510e-01
      6.05422147e-02 5.31761022e-03 1.93331949e-02 5.03440108e-03
      4.13632439e-03 1.25440734e-03 2.85722828e-03 4.28358950e-02
      2.11687610e-01 7.75083676e-02 2.45175362e-02 1.32750049e-02
      4.22341637e-02 1.45277558e-02 4.60460578e-04 8.62122455e-04
      3.85811040e-03 1.31676439e-02 2.05097850e-02 2.26977337e-02
      2.26931572e-02 2.07071155e-02 3.82190272e-02 3.90856974e-02
      4.06489931e-02 3.00123040e-02 8.10303073e-03 1.16626658e-02
      2.16113031e-02 2.10333690e-02 3.25466171e-02 5.08087054e-02
      6.99964762e-02 1.03375919e-01 1.50639892e-01 1.43237799e-01
      6.62727728e-02 2.99578086e-02 4.67857942e-02 1.19431518e-01
      1.20889291e-01 1.05660066e-01 1.67462230e-01 2.25422204e-01
      2.45668843e-01 1.34916276e-01 3.37699801e-02 5.63304797e-02
      1.69349134e-01 1.45112127e-01 5.67798689e-02 4.28582691e-02
      2.51439232e-02 7.19684064e-02 4.71190847e-02 3.00345775e-02
      3.68685611e-02 2.52398904e-02 3.17052677e-02 3.09290625e-02
      2.89054010e-02 2.96808090e-02 2.06972733e-02 6.66574463e-02
      4.71686758e-02 1.04160115e-01 2.01699093e-01 1.19368292e-01
      7.79077932e-02 4.69665527e-02 9.73983333e-02 1.55206412e-01
      1.21304184e-01 7.67395347e-02 2.09587514e-01 2.27087915e-01
      1.70573547e-01 1.61217421e-01 9.03996080e-02 1.52187973e-01
      2.45668843e-01 1.53831527e-01 1.93278432e-01 1.37987852e-01
      1.08046949e-01 6.66195527e-02 2.49859896e-02 1.81506258e-02
      2.58176476e-02 5.56473061e-02 5.65719903e-02 8.34790692e-02
      3.30586582e-02 1.57566052e-02 1.75219274e-03 9.19337850e-03
      1.49246966e-02 6.29802875e-04 6.01463066e-03 1.50745036e-02
      1.76084731e-02 5.06834872e-02 7.66135454e-02 1.10631008e-02
      5.12872031e-03 4.51172935e-03 1.09483395e-02 2.52686180e-02
      1.40716489e-02 1.29940482e-02 1.57314576e-02 1.28408670e-02
      3.04355985e-03 1.05322292e-02 9.13572870e-03 8.70092809e-02
      2.45668843e-01 4.83630039e-02 1.29302377e-02 1.00264912e-02
      9.71412379e-03 2.72590015e-03 2.70338636e-03 8.97874031e-03
      1.30955372e-02 4.72532809e-02 2.06410959e-02 1.12337796e-02</_>
    <_>
      1.81346573e-02 4.74582799e-03 3.80278355e-03 1.12238573e-02
      7.62697868e-03 1.14995020e-03 4.30354429e-03 3.12715210e-02
      3.88121456e-02 3.11974585e-02 4.88363439e-03 2.19787075e-03
      5.09025855e-03 5.61369536e-03 5.59101906e-03 5.88257127e-02
      1.52580008e-01 7.31502846e-02 3.36842462e-02 3.06169055e-02
      7.38296006e-03 1.95394480e-03 2.37479317e-03 7.20825745e-04
      3.97997163e-03 7.81152993e-02 8.19733441e-02 3.73242870e-02
      6.73942193e-02 1.94712002e-02 1.10912288e-03 5.90952986e-04
      1.86365709e-04 1.08884356e-03 4.59665572e-03 9.77409817e-03
      2.15146914e-02 1.38184745e-02 1.11924047e-02 3.21728997e-02
      6.81170896e-02 6.08183369e-02 2.96725910e-02 3.41052301e-02
      3.67066041e-02 6.42561689e-02 3.08226421e-02 2.25602817e-02
      9.41206813e-02 1.81111500e-01 1.67939216e-01 2.11188450e-01
      1.58846587e-01 9.77844596e-02 7.74506107e-02 1.21959083e-01
      1.87846497e-01 1.58633381e-01 2.41982087e-01 8.66127908e-02
      1.50973842e-01 2.43646249e-01 1.42503694e-01 6.48883581e-02
      1.57633319e-01 2.21246734e-01 5.49131669e-02 6.03199080e-02
      4.70450893e-02 9.17243809e-02 7.00812414e-02 3.48917469e-02
      1.64931398e-02 2.14917473e-02 1.16010504e-02 1.07488623e-02
      2.37113293e-02 6.52020425e-02 1.11570701e-01 4.25551981e-02
      2.24978328e-02 1.53479084e-01 1.77266255e-01 7.68556967e-02
      7.51435161e-02 1.04891948e-01 7.13943392e-02 6.75042197e-02
      4.37697805e-02 8.28217342e-02 2.11008281e-01 2.43646249e-01
      2.43646249e-01 9.73994657e-02 1.18204281e-01 4.58246954e-02
      8.25913846e-02 6.17758706e-02 2.88184360e-02 1.22018373e-02
      1.76642183e-02 1.08826131e-01 5.69484271e-02 3.96615863e-02
      3.50710750e-02 1.70961961e-01 1.40597805e-01 2.56903749e-02
      4.21507135e-02 2.89577600e-02 5.57406200e-03 1.80269126e-03
      1.04589027e-03 1.32743770e-03 1.22890519e-02 1.02370754e-02
      1.41690504e-02 8.28421712e-02 1.34784639e-01 2.92577222e-02
      6.11332478e-03 4.29873168e-03 2.13031867e-03 4.15083161e-03
      7.23088253e-03 1.86690409e-02 6.47586063e-02 3.11520267e-02
      9.04844142e-03 5.07125910e-03 7.08824536e-03 4.10771929e-03
      2.94382125e-03 8.40833411e-03 1.58086307e-02 4.87284223e-03
      2.25176220e-03 5.03268838e-03 5.30597754e-03 4.22472414e-03
      5.09512518e-03 1.08717605e-02 7.19980337e-03 4.37203888e-03</_>
    <_>
      2.30141841e-02 1.67144109e-02 7.77865946e-03 5.12948632e-03
      5.32180117e-03 5.72874257e-03 2.07739393e-03 4.89912555e-03
      1.68265849e-02 1.08544774e-01 4.17626835e-02 9.50903725e-03
      7.06419908e-03 4.38212277e-03 4.19317372e-03 2.92949355e-03
      3.73227969e-02 1.34795576e-01 1.10613413e-01 3.43101099e-02
      3.61487269e-02 2.57575866e-02 7.22548924e-03 7.92772695e-03
      1.88116878e-02 4.15404625e-02 1.80460870e-01 1.04179624e-02
      1.11933369e-02 1.02055725e-02 1.58443826e-03 5.56015735e-03
      5.93795720e-03 3.47786434e-02 3.52764092e-02 2.94157937e-02
      3.09416372e-02 3.31155695e-02 4.85844277e-02 8.43593404e-02
      5.97635321e-02 2.38894150e-02 2.56673601e-02 1.84849855e-02
      1.74011663e-02 7.73887560e-02 8.89690295e-02 8.09548572e-02
      1.86996639e-01 2.42959097e-01 1.57100245e-01 4.40729968e-02
      2.11036447e-02 6.92108721e-02 8.02775472e-02 4.31398414e-02
      3.22118998e-02 1.64374307e-01 2.42959097e-01 8.77056792e-02
      8.14417303e-02 8.71413201e-02 1.42595261e-01 2.09811516e-02
      1.45833353e-02 8.76924116e-03 8.28490220e-03 9.10890847e-03
      3.15593667e-02 6.79173023e-02 5.68639226e-02 3.16425934e-02
      2.34540515e-02 1.02434736e-02 1.61279812e-02 5.19034714e-02
      7.57002234e-02 6.10833764e-02 4.19383496e-02 3.81711088e-02
      2.55454648e-02 7.52947330e-02 4.28812392e-02 1.17510945e-01
      1.77008182e-01 2.42959097e-01 2.22654715e-01 1.33569807e-01
      3.84428948e-02 9.32123214e-02 2.15582117e-01 2.20908284e-01
      1.52220994e-01 1.28576010e-01 1.99163318e-01 1.53280854e-01
      1.62813038e-01 3.38801295e-02 5.51975071e-02 1.03168063e-01
      7.05097243e-02 3.68104540e-02 3.12792473e-02 1.52417589e-02
      1.91119462e-02 1.75312944e-02 9.70005151e-03 3.18180770e-02
      4.02811356e-02 1.59658436e-02 7.65998568e-03 1.17153060e-02
      6.56506419e-03 1.44333579e-02 7.04247225e-03 1.61295161e-02
      3.36073413e-02 1.39142275e-01 7.34021291e-02 1.03656109e-02
      1.26318820e-02 1.55840795e-02 3.31620052e-02 1.63056999e-02
      1.01180039e-02 6.17355220e-02 2.12181747e-01 8.46059993e-02
      1.67050157e-02 8.07127822e-03 3.91336791e-02 6.41297847e-02
      2.15689596e-02 1.04005203e-01 1.43549055e-01 8.24555010e-02
      7.08715841e-02 3.54522802e-02 1.95190515e-02 1.17389224e-02
      3.42299137e-03 8.05315841e-03 4.27138880e-02 5.14055640e-02</_>
    <_>
      1.67987440e-02 1.86640881e-02 1.13779074e-02 4.02654056e-03
      7.23439781e-03 4.21308354e-03 3.63642583e-04 3.50286980e-04
      4.49962495e-03 6.38645813e-02 7.33962879e-02 3.37023959e-02
      7.11815106e-03 7.20408186e-03 4.80365753e-03 2.89204344e-03
      7.70030683e-03 3.00690159e-02 5.52481450e-02 2.95924861e-02
      1.26905246e-02 5.91815682e-03 1.25855571e-02 5.71469869e-03
      2.50435434e-02 7.01889470e-02 8.51265043e-02 5.92238642e-03
      1.44705991e-03 7.28796003e-04 2.44158844e-04 2.23230221e-03
      3.15234228e-03 3.20478529e-02 5.32261394e-02 2.16789469e-02
      3.93019915e-02 4.85750660e-02 4.84670065e-02 1.04251839e-01
      6.08716719e-02 3.25774141e-02 2.10198350e-02 9.32528265e-03
      1.82914492e-02 7.08003938e-02 1.03646174e-01 1.03877224e-01
      1.89545587e-01 2.38263324e-01 1.69487461e-01 5.63736558e-02
      2.36148778e-02 3.95255163e-02 7.08666146e-02 7.14590922e-02
      6.42123818e-02 1.66107267e-01 2.38263324e-01 1.38421625e-01
      8.59550387e-02 6.31361678e-02 6.27846122e-02 1.45928068e-02
      3.48938592e-02 2.37225331e-02 1.95888784e-02 1.12288287e-02
      2.77150180e-02 5.65631539e-02 4.14095186e-02 1.28562562e-02
      4.08183113e-02 2.96744611e-02 3.33187915e-02 4.77385707e-02
      5.23708798e-02 6.36253878e-02 7.21331537e-02 3.18016969e-02
      5.77397682e-02 7.93753192e-02 7.69625828e-02 1.62413120e-01
      1.75594121e-01 2.38263324e-01 2.28676036e-01 1.91501677e-01
      7.07290918e-02 9.65291262e-02 1.46407917e-01 2.38263324e-01
      2.38263324e-01 1.59835324e-01 1.77879527e-01 1.55772299e-01
      1.75067157e-01 6.22999705e-02 5.23270108e-02 6.44347593e-02
      1.33873686e-01 8.01018998e-02 4.91359830e-02 1.37291765e-02
      1.10650975e-02 7.89890531e-03 1.17856124e-02 1.60460509e-02
      4.45235893e-02 1.25311008e-02 7.36586144e-03 1.24229314e-02
      6.46105036e-03 2.12434214e-02 1.96997188e-02 1.21936752e-02
      5.75594902e-02 1.07789613e-01 9.42585319e-02 4.23677191e-02
      6.50986983e-03 1.15552945e-02 3.20944674e-02 4.36154194e-02
      1.50386458e-02 6.71160519e-02 9.93979424e-02 1.27433985e-01
      5.23682348e-02 9.25867911e-03 4.59179049e-03 4.14243042e-02
      9.31987762e-02 9.90978181e-02 7.84555078e-02 3.71497124e-02
      8.02025124e-02 4.59983982e-02 1.44677311e-02 6.73554512e-03
      5.29766502e-03 2.66291928e-02 6.02667965e-02 4.72667702e-02</_>
    <_>
      4.32277843e-03 2.16975193e-02 3.18763144e-02 2.72106975e-02
      1.52538465e-02 1.16784377e-02 1.88998934e-02 6.36270735e-03
      1.24049105e-03 4.73111495e-02 5.49096428e-02 6.32947981e-02
      3.31172757e-02 2.25072671e-02 2.50116829e-02 3.96537520e-02
      8.69639311e-03 2.00297739e-02 4.17514332e-02 9.71086510e-03
      2.18433514e-02 5.18921483e-03 3.47965583e-02 1.26174781e-02
      4.16904874e-02 3.23154069e-02 4.23192233e-02 1.28835542e-02
      2.37125438e-03 9.26823006e-04 4.82713152e-03 1.70833115e-02
      1.88441705e-02 1.34560108e-01 7.22592101e-02 1.64556559e-02
      3.16881053e-02 5.26953042e-02 1.09563574e-01 1.09036133e-01
      6.32283315e-02 3.63431610e-02 2.81263478e-02 1.42856594e-02
      1.27410116e-02 6.43832386e-02 7.35754743e-02 1.06788389e-01
      7.94230476e-02 2.31008589e-01 1.62125930e-01 8.49042386e-02
      4.32670377e-02 4.29861806e-02 4.18291166e-02 2.51617059e-02
      8.25704113e-02 3.08755115e-02 1.48664281e-01 2.87350025e-02
      5.65551631e-02 2.07381286e-02 4.14464511e-02 4.12942655e-02
      1.04333855e-01 1.05966829e-01 2.94735804e-02 4.46098931e-02
      1.18124634e-02 5.16898073e-02 2.71240417e-02 1.95988454e-02
      3.47444564e-02 1.43782180e-02 1.82355791e-02 3.89353856e-02
      5.07596955e-02 5.84967658e-02 8.74942243e-02 1.05011053e-01
      4.83363830e-02 4.56568673e-02 2.44792309e-02 1.90558545e-02
      5.90881780e-02 2.66084969e-01 2.66084969e-01 1.47665560e-01
      1.25877216e-01 6.53926432e-02 7.12993592e-02 1.92345411e-01
      2.66084969e-01 1.50673002e-01 1.45422846e-01 7.50108585e-02
      5.07809632e-02 4.16396745e-02 5.19240759e-02 4.69591506e-02
      2.15920553e-01 2.66084969e-01 7.79736489e-02 1.83269996e-02
      4.15447634e-03 2.98477104e-03 6.01532822e-03 1.74221732e-02
      1.70679484e-02 4.11657908e-04 6.64291205e-04 1.04202228e-02
      9.09185223e-03 5.00814337e-03 4.31256182e-02 4.52029742e-02
      3.22065502e-02 1.80809155e-01 7.28381276e-02 1.47651811e-03
      4.64051869e-03 1.37062613e-02 1.41520575e-02 6.43714592e-02
      1.07618004e-01 1.10454753e-01 1.67910993e-01 2.66084969e-01
      1.77977756e-01 4.16911058e-02 5.03168395e-03 4.93530929e-03
      6.15534838e-03 1.41234072e-02 3.79408672e-02 2.84631504e-03
      1.51117360e-02 6.21716268e-02 2.78947931e-02 9.81447659e-03
      1.06078130e-03 6.28644368e-04 6.29226677e-04 2.41027516e-03</_>
    <_>
      9.51913465e-03 4.57276590e-02 1.68306660e-02 2.73570698e-02
      1.77124161e-02 4.76423698e-03 7.23399222e-03 1.53166950e-02
      3.42829176e-03 3.53242345e-02 8.53597447e-02 5.07003628e-02
      3.55197378e-02 3.77318859e-02 2.16258317e-02 3.27905566e-02
      3.30496617e-02 2.20179912e-02 2.74613556e-02 7.15696812e-03
      1.28664291e-02 1.33927139e-02 4.56659272e-02 2.43803915e-02
      3.31599824e-02 1.47530427e-02 3.01435739e-02 1.50989881e-03
      2.08143494e-04 1.25685637e-03 3.08114174e-03 1.68302320e-02
      3.09210010e-02 3.95553298e-02 1.71303563e-02 2.37008510e-03
      1.72142070e-02 5.69026805e-02 6.04363456e-02 1.29654467e-01
      6.76658973e-02 4.31766510e-02 2.17519160e-02 1.68827996e-02
      5.65541862e-03 3.68125066e-02 8.22030306e-02 6.75234571e-02
      9.36981663e-02 1.94599882e-01 2.40420029e-01 1.47719577e-01
      6.04836605e-02 4.03173491e-02 1.69388484e-02 1.13192480e-02
      1.87957138e-02 4.33332957e-02 1.44112945e-01 1.62311465e-01
      1.08524203e-01 1.64817367e-02 2.46345215e-02 9.57902148e-03
      2.68015824e-02 4.57266122e-02 8.97444114e-02 8.39330330e-02
      3.28300968e-02 2.10790373e-02 5.18749375e-03 6.88326778e-03
      2.63095107e-02 2.19195262e-02 1.80316605e-02 3.50023657e-02
      4.45896387e-02 7.18582869e-02 7.16726631e-02 9.59243104e-02
      5.58049567e-02 1.35279939e-01 2.98608001e-02 3.06314006e-02
      4.95668314e-02 1.64072499e-01 2.40420029e-01 1.80828959e-01
      1.58719689e-01 1.26187652e-01 1.74676344e-01 2.40420029e-01
      2.30638668e-01 5.21714464e-02 1.04061015e-01 1.39476687e-01
      7.96709508e-02 4.01107855e-02 8.40270594e-02 4.83769663e-02
      2.22206578e-01 2.40420029e-01 8.19624215e-02 3.90980840e-02
      3.07946317e-02 6.14770353e-02 6.33790120e-02 4.09992188e-02
      2.69417092e-02 4.92329942e-03 1.71873800e-03 1.14432629e-02
      9.46286973e-03 4.35429672e-03 2.05016993e-02 4.79620285e-02
      4.61092517e-02 1.82065308e-01 9.75606665e-02 1.21640926e-02
      8.65047891e-03 1.47632230e-02 1.80743076e-02 1.86839961e-02
      8.98859054e-02 1.48404077e-01 1.87459633e-01 2.24693194e-01
      9.44941342e-02 6.88442588e-03 3.32524488e-03 2.31084437e-03
      3.29020852e-03 1.66479852e-02 6.50496036e-02 7.38664158e-03
      3.04079428e-02 5.02059385e-02 7.77124334e-03 1.76627375e-02
      1.64719392e-02 2.75215153e-02 1.49608795e-02 6.12344779e-03</_>
    <_>
      1.07046021e-02 2.95209810e-02 5.61522022e-02 3.93759198e-02
      2.40904801e-02 6.29950501e-03 3.01592145e-03 1.12943689e-03
      1.19136684e-02 9.93631855e-02 9.88117829e-02 7.98459128e-02
      4.43661809e-02 1.76221132e-02 1.56026464e-02 1.71992648e-02
      2.36798506e-02 2.84106191e-02 4.16717343e-02 3.98556776e-02
      3.80769260e-02 2.81042475e-02 3.67675833e-02 4.85892966e-02
      4.62118164e-02 1.88022554e-02 2.59540286e-02 1.14072599e-02
      1.25302514e-03 2.89386604e-03 9.59727622e-04 2.39502471e-02
      1.51750399e-02 1.24627519e-02 3.26673291e-03 1.14037646e-02
      3.02619673e-02 4.70855832e-02 8.90037492e-02 9.41320211e-02
      5.01372069e-02 6.23878017e-02 3.20527740e-02 1.15883835e-02
      2.12124083e-02 3.29359025e-02 4.78028283e-02 8.72491896e-02
      1.87259868e-01 2.55807310e-01 2.55807310e-01 1.07316718e-01
      4.78417687e-02 2.71021146e-02 1.52416183e-02 1.01995850e-02
      2.08899751e-02 1.20350137e-01 2.55807310e-01 2.55807310e-01
      1.29832625e-01 4.01827767e-02 2.38324143e-02 3.12971836e-03
      4.22482117e-04 2.56474898e-03 7.01200264e-03 1.01529248e-01
      1.93865318e-02 8.51620454e-03 2.24393513e-03 3.57696950e-03
      4.20360230e-02 2.72107068e-02 1.15744732e-02 3.58712524e-02
      4.01535966e-02 6.41279966e-02 1.05712458e-01 5.78484982e-02
      6.38825372e-02 6.27762824e-02 2.72422396e-02 2.10254565e-02
      5.60041666e-02 1.94010615e-01 2.55807310e-01 2.55807310e-01
      1.48291603e-01 1.45425171e-01 1.05704956e-01 3.84778082e-02
      2.69044433e-02 8.16463307e-02 1.96095094e-01 2.44275033e-01
      1.09355360e-01 5.55669926e-02 1.33345515e-01 2.18777936e-02
      4.07106690e-02 4.98783328e-02 1.41528947e-02 9.89543200e-02
      1.29540712e-02 1.41101070e-02 1.96446702e-02 2.28093248e-02
      1.03543475e-02 6.77265646e-03 1.36079057e-03 5.47734741e-03
      1.80716850e-02 3.75877903e-03 3.31346840e-02 2.86455266e-02
      1.58673525e-02 5.88624142e-02 9.09517054e-03 2.39058677e-02
      2.83543281e-02 2.27719005e-02 1.83866452e-02 5.79905286e-02
      1.12707026e-01 1.73033908e-01 1.18618123e-01 5.30587621e-02
      2.27828845e-02 1.70858447e-02 3.17467451e-02 3.18149887e-02
      3.23592797e-02 5.92926927e-02 1.65286988e-01 4.77442928e-02
      1.25260174e-01 1.04208671e-01 4.11024597e-03 1.09979408e-02
      2.30483175e-03 1.15797287e-02 2.14540288e-02 3.15032899e-02</_>
    <_>
      1.42580625e-02 3.37185971e-02 3.34251970e-02 4.82188165e-02
      2.55084671e-02 8.63232184e-03 5.06310491e-03 2.17299862e-03
      9.42592323e-03 5.27076274e-02 8.93573910e-02 5.96509054e-02
      5.11553325e-02 2.36817319e-02 2.71783248e-02 3.27475183e-02
      2.80943159e-02 2.91540548e-02 2.69439239e-02 2.19291691e-02
      3.15837227e-02 1.46638490e-02 3.15109231e-02 4.45176251e-02
      4.94387262e-02 1.95489917e-02 2.75287349e-02 4.53579193e-03
      4.70758503e-04 2.37333379e-03 4.57039627e-04 1.13154519e-02
      2.40895599e-02 3.96584980e-02 9.97074042e-03 4.88415221e-03
      2.57906932e-02 2.84819566e-02 6.49574399e-02 8.90492424e-02
      7.32899681e-02 6.42963052e-02 5.05945981e-02 9.73156746e-03
      1.71284620e-02 3.48983258e-02 4.66570333e-02 3.96269821e-02
      1.24564193e-01 2.22799152e-01 2.47590810e-01 1.83179647e-01
      5.25541529e-02 2.42153276e-02 1.17980978e-02 1.03761740e-02
      2.04869714e-02 6.66274056e-02 1.84585348e-01 2.47590810e-01
      1.53211012e-01 2.39914246e-02 1.48376841e-02 1.07804108e-02
      3.99593171e-03 1.59404241e-02 2.30626930e-02 6.44191206e-02
      2.71465275e-02 2.20182315e-02 9.67095327e-03 1.11573301e-02
      3.93449590e-02 2.91184802e-02 2.14979239e-02 1.71077922e-02
      4.53348123e-02 6.19976781e-02 9.23361927e-02 9.33857709e-02
      6.85226992e-02 1.05873525e-01 2.00002026e-02 2.62513030e-02
      3.82585451e-02 1.39634132e-01 2.47590810e-01 2.36740604e-01
      2.47590810e-01 1.92366004e-01 1.36273026e-01 7.69178644e-02
      9.37555730e-02 4.69467267e-02 1.04332976e-01 1.85997829e-01
      1.27945453e-01 5.85389026e-02 1.59769326e-01 3.87664400e-02
      1.45817026e-01 2.20050320e-01 6.53060377e-02 3.96436937e-02
      7.69561063e-03 2.09680647e-02 2.00510770e-02 2.74156444e-02
      1.27464198e-02 6.61954144e-03 4.12984425e-03 6.57767011e-03
      1.49876550e-02 4.96710185e-03 1.67597011e-02 2.33999230e-02
      1.65906120e-02 1.03068642e-01 5.10916635e-02 2.61828322e-02
      3.40530537e-02 1.82508621e-02 1.93108432e-02 3.34920175e-02
      7.54604489e-02 1.37857258e-01 1.89909488e-01 1.80334210e-01
      7.03633130e-02 1.54421944e-02 7.02402322e-03 1.65067147e-02
      2.50341017e-02 2.92257871e-02 1.15721770e-01 3.85577418e-02
      7.83888102e-02 9.25357491e-02 1.53557900e-02 2.01447331e-03
      9.67230939e-04 8.39707348e-03 8.93907156e-03 1.53015330e-02</_>
    <_>
      9.42970219e-04 5.01646427e-04 2.50611617e-03 1.17195984e-02
      2.10054815e-02 1.15868738e-02 5.65686543e-03 1.66631362e-03
      8.70894408e-04 4.58746962e-03 4.64716181e-03 1.22828884e-02
      1.59928650e-02 3.58889997e-02 7.55834058e-02 4.12400290e-02
      1.65754873e-02 9.80255660e-03 5.11755142e-03 1.09707867e-03
      7.60809192e-03 1.19586634e-02 8.23627561e-02 1.89042374e-01
      7.54672512e-02 5.11952229e-02 1.74863487e-02 7.19590392e-03
      1.42734684e-02 3.05742472e-02 3.43567841e-02 1.95581522e-02
      5.31876013e-02 2.52597723e-02 9.99929197e-03 5.06023783e-03
      3.41039486e-02 2.67431214e-02 3.95551622e-02 2.35624984e-02
      4.84057032e-02 2.07536537e-02 1.87671464e-02 1.92402508e-02
      3.52822579e-02 1.51899219e-01 1.99085325e-01 1.32494032e-01
      1.99200232e-02 4.03919220e-02 6.52185977e-02 6.51643649e-02
      8.83852988e-02 7.85605609e-02 5.14734015e-02 4.65960093e-02
      2.90193744e-02 2.48157363e-02 6.45063668e-02 2.67895311e-01
      2.67895311e-01 2.67895311e-01 1.27089933e-01 3.47598903e-02
      1.38058178e-02 5.92059828e-02 8.49987417e-02 2.56068241e-02
      8.25210139e-02 1.41526952e-01 1.03316657e-01 6.27269745e-02
      4.98159342e-02 4.07060347e-02 2.73717158e-02 3.36194318e-03
      1.88193948e-03 3.69634596e-03 1.71694160e-02 2.18074676e-02
      3.29762287e-02 1.26621872e-01 1.18821152e-01 3.18283178e-02
      2.20682495e-03 2.43965955e-03 6.96594361e-04 2.60907039e-03
      1.15834950e-02 4.41167951e-02 9.96496975e-02 1.57471702e-01
      1.17937088e-01 9.99778435e-02 3.18425298e-02 1.15470991e-01
      2.67895311e-01 1.09195486e-01 6.19634353e-02 1.07946008e-01
      1.39793634e-01 7.93364048e-02 4.05997336e-02 4.74916622e-02
      9.11301449e-02 2.67895311e-01 1.22169390e-01 3.21298093e-02
      3.68357054e-03 2.24656472e-03 1.65311620e-03 5.23963303e-04
      8.29401659e-04 4.45473008e-04 1.48043165e-03 1.45999412e-03
      2.13567843e-03 4.58248006e-03 2.56771664e-03 2.33308785e-03
      5.08523919e-03 1.14846257e-02 1.22873334e-03 1.48871075e-03
      1.18602847e-03 1.73727353e-03 2.37403940e-02 5.69143929e-02
      1.41848534e-01 2.14497045e-01 2.67895311e-01 4.45744134e-02
      8.46208353e-03 1.86693238e-03 2.52098660e-03 4.95433286e-02
      6.91603795e-02 7.72764087e-02 8.48575979e-02 1.21830121e-01
      4.08259779e-02 2.15748232e-02 1.26244696e-02 1.30956080e-02</_></support_vectors>
  <decision_functions>
    <_>
      <sv_count>40</sv_count>
      <rho>9.9326832765667084e-01</rho>
      <alpha>
        6.7780922890671160e+00 8.5042610473495728e+00
        2.3640476190444151e-01 9.6154122663680675e-01
        2.0165989401365363e+00 3.8404748513101666e-01
        2.2951111758026643e+00 5.4141333559240472e+00
        1.2500000000000000e+01 6.4218892236828014e+00
        3.0121919630673020e+00 1.2500000000000000e+01
        9.9912894507334435e+00 1.1811899400531047e+00
        1.2500000000000000e+01 1.0936063825021462e+01
        1.2500000000000000e+01 -8.7692276601994867e-01
        -1.5158649731286480e+00 -2.7855150398475943e+00
        -3.7047374156140704e+00 -8.5191454711133670e+00
        -1.2500000000000000e+01 -4.6118806040070220e-01
        -6.5637810191531178e+00 -1.2529843106903389e+00
        -9.2114562858869178e+00 -4.2860064124567865e+00
        -2.0833226901193574e-01 -1.1600876348957874e+01
        -3.8290270314229167e+00 -1.6056411964285267e+00
        -4.3024187736094603e+00 -1.2500000000000000e+01
        -1.2190853434087581e+01 -5.3100967664601950e-01
        -1.6972762124559790e+00 -2.5366125043619716e+00
        -5.0585746580656940e-02 -5.4025797366358752e+00</alpha>
      <index>
        0 1 2 3 4 5 6 7 8 9 10 11 12 13 14 15 16 17 18 19 20 21 22 23 24
        25 26 27 28 29 30 31 32 33 34 35 36 37 38 39</index></_></decision_functions></opencv_ml_svm>
</opencv_storage>
